{"learner":{"attributes":{"scikit_learn":"{\"_estimator_type\": \"classifier\"}"},"feature_names":["open","high","low","close","volume_btc","volume_usd","momentum","volatility_24h","sma_24","sma_168","return_1h","return_3h","return_6h"],"feature_types":["float","float","float","float","float","float","float","float","float","float","float","float","float"],"gradient_booster":{"model":{"gbtree_model_param":{"num_parallel_tree":"1","num_trees":"100"},"iteration_indptr":[0,1,2,3,4,5,6,7,8,9,10,11,12,13,14,15,16,17,18,19,20,21,22,23,24,25,26,27,28,29,30,31,32,33,34,35,36,37,38,39,40,41,42,43,44,45,46,47,48,49,50,51,52,53,54,55,56,57,58,59,60,61,62,63,64,65,66,67,68,69,70,71,72,73,74,75,76,77,78,79,80,81,82,83,84,85,86,87,88,89,90,91,92,93,94,95,96,97,98,99,100],"tree_info":[0,0,0,0,0,0,0,0,0,0,0,0,0,0,0,0,0,0,0,0,0,0,0,0,0,0,0,0,0,0,0,0,0,0,0,0,0,0,0,0,0,0,0,0,0,0,0,0,0,0,0,0,0,0,0,0,0,0,0,0,0,0,0,0,0,0,0,0,0,0,0,0,0,0,0,0,0,0,0,0,0,0,0,0,0,0,0,0,0,0,0,0,0,0,0,0,0,0,0,0],"trees":[{"base_weights":[-3.054859E-1,-1.0234883E0,8.13242E-1,-1.2025054E0,-6.0791636E-1,3.1437016E-1,1.3115252E0,-1.2360809E0,-1.0338812E0,-7.8736115E-1,-3.0175295E-1,-9.168729E-2,6.3107294E-1,1.8283058E0,1.1400799E0,-1.2366818E0,-3.883082E-1,-1.0656664E0,-8.3846307E-1,-9.029166E-1,-6.249925E-1,-4.5343703E-1,3.4849275E-2,-4.0616718E-1,3.155831E-1,1.0734566E0,4.466466E-1,1.9540675E0,1.5205467E0,7.5645673E-1,1.3415245E0,-3.7287766E-1,-1.1813624E0,6.5906994E-2,-2.5133383E-1,-1.1246035E0,-9.9389136E-1,-3.1271577E-1,-7.1957755E-1,-9.694175E-1,-7.3278177E-1,-7.0662713E-1,-4.3823054E-1,-5.6558233E-1,-2.067539E-1,-4.3361706E-1,1.9169994E-1,-7.8727835E-1,-2.5295582E-1,1.0247534E-1,6.387482E-1,4.9878627E-1,1.2167269E0,2.771781E-1,8.050048E-1,1.505222E0,2.0299401E0,1.6517675E0,8.6620384E-1,1.3182293E0,5.7460487E-1,1.589463E0,1.164731E0,-7.622578E-2,-3.549399E-1,-3.4124112E-1,-1.5429178E-1,-8.7957405E-2,-3.045145E-1,-2.3010834E-1,-4.469668E-2,-3.1229025E-1,-2.5107914E-1,-2.2417344E-1,3.8846537E-2,-2.1574287E-1,6.487968E-2,-1.0472623E-1,-1.7705543E-1,-1.9544397E-1,-9.013554E-2,-1.7687915E-1,-3.8621468E-3,1.07951695E-2,-1.8896951E-1,5.12837E-1,4.277419E-2,-2.4399759E-1,6.9194905E-2,1.4571784E-1,-9.44756E-2,1.3399215E-1,-7.2135655E-3,2.9640213E-1,6.5664954E-2,3.3772814E-1,6.918775E-2,4.0349966E-1,2.505346E-1,-1.0465029E-1,1.1125786E-1,4.5613238E-1,2.1261206E-1,6.5002924E-1,3.0328408E-1,-7.622578E-2,6.113186E-1,4.6242657E-1,6.674561E-1,4.9835828E-1,1.4128545E-1,1.798999E-1,4.4480976E-1,1.2511626E-1,3.055245E-1,4.268912E-1,5.2312994E-1,3.301403E-1,5.703885E-1],"categories":[],"categories_nodes":[],"categories_segments":[],"categories_sizes":[],"default_left":[0,0,0,0,0,0,0,0,0,0,0,0,0,0,0,0,0,0,0,0,0,0,0,0,0,0,0,0,0,0,0,0,0,0,0,0,0,0,0,0,0,0,0,0,0,0,0,0,0,0,0,0,0,0,0,0,0,0,0,0,0,0,0,0,0,0,0,0,0,0,0,0,0,0,0,0,0,0,0,0,0,0,0,0,0,0,0,0,0,0,0,0,0,0,0,0,0,0,0,0,0,0,0,0,0,0,0,0,0,0,0,0,0,0,0,0,0,0,0],"id":0,"left_children":[1,3,5,7,9,11,13,15,17,19,21,23,25,27,29,31,33,35,37,39,41,43,45,47,49,51,53,55,57,59,61,-1,63,-1,-1,65,67,-1,69,71,73,75,77,79,81,83,85,87,89,91,93,95,97,99,101,103,105,107,109,111,113,115,117,-1,-1,-1,-1,-1,-1,-1,-1,-1,-1,-1,-1,-1,-1,-1,-1,-1,-1,-1,-1,-1,-1,-1,-1,-1,-1,-1,-1,-1,-1,-1,-1,-1,-1,-1,-1,-1,-1,-1,-1,-1,-1,-1,-1,-1,-1,-1,-1,-1,-1,-1,-1,-1,-1,-1,-1],"loss_changes":[1.1181864E4,6.3004297E2,1.3523511E3,3.22666E1,1.4012103E2,3.4993808E2,2.3910791E2,2.0351562E0,5.255615E0,2.9645447E1,4.8299667E1,1.5293102E2,1.242392E2,2.3212158E1,1.571582E2,2.3486328E-1,1.5378602E0,2.4685059E0,2.721199E0,9.90686E0,9.946503E0,1.7919678E1,2.1737507E1,3.913559E1,3.5773495E1,3.6365906E1,6.540161E1,1.3180054E1,1.5806671E1,7.147131E1,5.6919434E1,0E0,5.5389404E-1,0E0,0E0,3.0109253E0,5.496765E0,0E0,2.4220886E0,5.495117E0,3.4366608E0,5.5434723E0,2.601162E0,9.998856E0,1.5233985E1,6.864497E0,1.6267345E1,5.296509E0,2.221269E1,1.3717802E1,3.0080803E1,1.5092054E1,1.6437805E1,4.324408E1,2.278897E1,2.1615265E1,7.7213135E0,7.07547E0,1.0415497E1,1.9453278E1,3.7046265E1,1.1785645E1,3.513208E1,0E0,0E0,0E0,0E0,0E0,0E0,0E0,0E0,0E0,0E0,0E0,0E0,0E0,0E0,0E0,0E0,0E0,0E0,0E0,0E0,0E0,0E0,0E0,0E0,0E0,0E0,0E0,0E0,0E0,0E0,0E0,0E0,0E0,0E0,0E0,0E0,0E0,0E0,0E0,0E0,0E0,0E0,0E0,0E0,0E0,0E0,0E0,0E0,0E0,0E0,0E0,0E0,0E0,0E0,0E0,0E0],"parents":[2147483647,0,0,1,1,2,2,3,3,4,4,5,5,6,6,7,7,8,8,9,9,10,10,11,11,12,12,13,13,14,14,15,15,16,16,17,17,18,18,19,19,20,20,21,21,22,22,23,23,24,24,25,25,26,26,27,27,28,28,29,29,30,30,32,32,35,35,36,36,38,38,39,39,40,40,41,41,42,42,43,43,44,44,45,45,46,46,47,47,48,48,49,49,50,50,51,51,52,52,53,53,54,54,55,55,56,56,57,57,58,58,59,59,60,60,61,61,62,62],"right_children":[2,4,6,8,10,12,14,16,18,20,22,24,26,28,30,32,34,36,38,40,42,44,46,48,50,52,54,56,58,60,62,-1,64,-1,-1,66,68,-1,70,72,74,76,78,80,82,84,86,88,90,92,94,96,98,100,102,104,106,108,110,112,114,116,118,-1,-1,-1,-1,-1,-1,-1,-1,-1,-1,-1,-1,-1,-1,-1,-1,-1,-1,-1,-1,-1,-1,-1,-1,-1,-1,-1,-1,-1,-1,-1,-1,-1,-1,-1,-1,-1,-1,-1,-1,-1,-1,-1,-1,-1,-1,-1,-1,-1,-1,-1,-1,-1,-1,-1,-1],"split_conditions":[1.0381414E2,3.9180206E1,2.7466116E2,4.0354368E3,9.79279E3,1.3400497E4,-1.4082E2,5.245E1,1.987E1,1.4243675E7,2.219773E7,2.629323E7,-2.901672E-3,-1.8381897E-3,3.135495E4,1.7164363E3,3.55016E3,7.789138E3,8.881194E6,7.082156E1,8.232685E1,2.620109E4,6.2685364E1,1.0538659E7,1.8113376E2,2.1801678E7,3.087348E4,2.227937E4,5.711013E4,-5.211342E-3,6.763048E-4,-3.7287766E-1,-3.7450153E-2,6.5906994E-2,-2.5133383E-1,9.057468E-3,-5.1219575E-3,-3.1271577E-1,1.707799E4,7.498698E3,1.4992321E-2,1.6503E2,9.5720314E1,8.232685E1,8.158643E6,1.46485E3,-2.1555E2,1.151901E4,-1.33698555E-2,-1.856675E-2,1.5464092E-3,-2.2312808E-3,8.18E0,1.1728461E7,-4.681329E-3,-3.7450153E-2,1.7507262E7,2.8000379E-2,5.0471893E2,3.0714972E7,5.0471893E2,4.3818742E4,1.4992321E-2,-7.622578E-2,-3.549399E-1,-3.4124112E-1,-1.5429178E-1,-8.7957405E-2,-3.045145E-1,-2.3010834E-1,-4.469668E-2,-3.1229025E-1,-2.5107914E-1,-2.2417344E-1,3.8846537E-2,-2.1574287E-1,6.487968E-2,-1.0472623E-1,-1.7705543E-1,-1.9544397E-1,-9.013554E-2,-1.7687915E-1,-3.8621468E-3,1.07951695E-2,-1.8896951E-1,5.12837E-1,4.277419E-2,-2.4399759E-1,6.9194905E-2,1.4571784E-1,-9.44756E-2,1.3399215E-1,-7.2135655E-3,2.9640213E-1,6.5664954E-2,3.3772814E-1,6.918775E-2,4.0349966E-1,2.505346E-1,-1.0465029E-1,1.1125786E-1,4.5613238E-1,2.1261206E-1,6.5002924E-1,3.0328408E-1,-7.622578E-2,6.113186E-1,4.6242657E-1,6.674561E-1,4.9835828E-1,1.4128545E-1,1.798999E-1,4.4480976E-1,1.2511626E-1,3.055245E-1,4.268912E-1,5.2312994E-1,3.301403E-1,5.703885E-1],"split_indices":[7,7,7,9,3,9,6,6,6,5,5,5,11,11,1,8,0,9,5,7,7,8,7,5,7,5,2,0,3,11,11,0,12,0,0,11,10,0,0,9,10,6,7,7,5,4,6,2,11,12,10,10,6,5,12,12,5,12,7,5,7,8,10,0,0,0,0,0,0,0,0,0,0,0,0,0,0,0,0,0,0,0,0,0,0,0,0,0,0,0,0,0,0,0,0,0,0,0,0,0,0,0,0,0,0,0,0,0,0,0,0,0,0,0,0,0,0,0,0],"split_type":[0,0,0,0,0,0,0,0,0,0,0,0,0,0,0,0,0,0,0,0,0,0,0,0,0,0,0,0,0,0,0,0,0,0,0,0,0,0,0,0,0,0,0,0,0,0,0,0,0,0,0,0,0,0,0,0,0,0,0,0,0,0,0,0,0,0,0,0,0,0,0,0,0,0,0,0,0,0,0,0,0,0,0,0,0,0,0,0,0,0,0,0,0,0,0,0,0,0,0,0,0,0,0,0,0,0,0,0,0,0,0,0,0,0,0,0,0,0,0],"sum_hessian":[1.3918753E4,8.477778E3,5.440974E3,5.9239907E3,2.5537878E3,2.7196963E3,2.7212778E3,4.935025E3,9.889661E2,1.6091062E3,9.446817E2,1.1920419E3,1.5276545E3,6.7549567E2,2.0457822E3,4.931071E3,3.9539666E0,8.467815E2,1.4218463E2,9.374064E2,6.716998E2,6.50981E2,2.9370062E2,6.726488E2,5.1939307E2,4.4806348E2,1.0795911E3,4.7574124E2,1.997544E2,7.0602026E2,1.339762E3,4.4116777E3,5.1939307E2,1.8979039E0,2.0560627E0,4.5692038E2,3.8986108E2,4.9503662E1,9.268098E1,6.705927E2,2.6681366E2,4.6546094E2,2.0623889E2,4.4664005E2,2.0434099E2,7.322746E1,2.2047318E2,1.916883E2,4.8096048E2,3.1378677E2,2.0560626E2,9.030859E1,3.5775488E2,7.341725E2,3.4541852E2,7.180403E1,4.0393723E2,1.6511765E2,3.4636745E1,1.7112767E2,5.348926E2,5.543461E2,7.854159E2,1.2652693E0,5.1812775E2,4.4664005E2,1.0280313E1,1.1861899E1,3.779992E2,8.524752E1,7.433457E0,4.3098236E2,2.3961037E2,2.6254337E2,4.2702837E0,4.594509E2,6.010029E0,1.3206248E2,7.4176414E1,3.362453E2,1.10394745E2,6.8008224E1,1.3633276E2,2.1825895E1,5.1401566E1,5.8518705E0,2.146213E2,1.871017E2,4.5866013E0,3.669281E1,4.4426767E2,8.366593E1,2.3012085E2,1.11501854E2,9.41044E1,2.6096178E1,6.421242E1,2.6586472E2,9.189018E1,9.521151E1,6.38961E2,3.9223347E1,3.0619516E2,2.9259352E1,4.2544678E1,1.2652693E0,4.0267194E2,1.41552E2,2.356564E1,1.0438472E1,2.4198275E1,3.2738842E1,1.3838882E2,3.9618744E2,1.3870514E2,2.715584E2,2.827877E2,7.24683E2,6.0732925E1],"tree_param":{"num_deleted":"0","num_feature":"13","num_nodes":"119","size_leaf_vector":"1"}},{"base_weights":[-2.5921977E-1,-9.5709115E-1,4.2891717E-1,-1.1170937E0,-5.5694336E-1,1.8266078E-2,6.330129E-1,-1.1576257E0,-9.2227256E-1,-7.1610546E-1,-3.112836E-1,-1.9640343E-1,2.9702508E-1,2.617937E-2,6.8619454E-1,-1.1581154E0,-2.8446564E-2,-9.5758224E-1,-7.1569633E-1,-8.8926196E-1,-6.3681227E-1,-4.4978452E-1,-6.512338E-2,-4.9411708E-1,-4.4774696E-2,1.8218169E-1,6.5791017E-1,3.4606576E-1,-1.8393905E-1,8.6884105E-1,5.972675E-1,-1.1617041E0,-1.0145704E0,-1.0250528E0,-8.7769395E-1,-9.333117E-1,-5.968865E-1,-5.1583353E-2,-9.104557E-1,-8.067007E-1,-5.5247915E-1,-4.707116E-1,3.878277E-1,8.920146E-1,-1.1153079E-1,-6.5881133E-1,-3.3308646E-1,2.3097318E-1,-1.410067E-1,2.8613036E-2,4.1560772E-1,1.2134687E0,5.85641E-1,6.25805E-1,2.2439826E-2,-3.4972778E-1,1.42781E-1,1.5969716E0,8.537882E-1,4.0941912E-1,7.209074E-1,-2.7471733E-1,-3.4889898E-1,-3.2973045E-1,-2.3899074E-1,-3.090014E-1,1.1736803E-1,-3.5311937E-2,-2.6917702E-1,-3.1544727E-1,-2.1366103E-1,5.0148383E-2,-1.9010168E-1,2.766421E-1,-9.98268E-2,-2.910065E-1,-2.1816915E-1,-2.4965507E-1,4.5241132E-2,-1.839717E-1,-9.928361E-2,-1.8296337E-1,-9.274229E-2,2.4833618E-2,4.1214812E-1,3.0647323E-1,-6.8841904E-2,-5.020444E-2,1.859651E-1,-2.2204171E-1,-8.22155E-2,-1.7372899E-1,-1.8629579E-2,-2.872338E-2,1.3437691E-1,-6.7837E-2,4.1638944E-2,-2.3084944E-1,2.0149937E-2,1.9708261E-1,6.667931E-2,4.8746648E-1,6.716145E-2,1.3906552E-1,2.8824332E-1,5.3082025E-1,1.6785717E-1,-2.8750098E-1,2.7827298E-2,-1.6016583E-1,-1.49173075E-2,1.5885028E-1,-6.465589E-2,5.101623E-1,4.642195E-2,2.1685448E-1,2.7383628E-1,2.7493019E-2,1.4427567E-1,2.691989E-1,1.8674101E-1],"categories":[],"categories_nodes":[],"categories_segments":[],"categories_sizes":[],"default_left":[0,0,0,0,0,0,0,0,0,0,0,0,0,0,0,0,0,0,0,0,0,0,0,0,0,0,0,0,0,0,0,0,0,0,0,0,0,0,0,0,0,0,0,0,0,0,0,0,0,0,0,0,0,0,0,0,0,0,0,0,0,0,0,0,0,0,0,0,0,0,0,0,0,0,0,0,0,0,0,0,0,0,0,0,0,0,0,0,0,0,0,0,0,0,0,0,0,0,0,0,0,0,0,0,0,0,0,0,0,0,0,0,0,0,0,0,0,0,0,0,0],"id":1,"left_children":[1,3,5,7,9,11,13,15,17,19,21,23,25,27,29,31,-1,33,35,37,39,41,43,45,47,49,51,53,55,57,59,61,63,65,67,69,71,73,75,77,79,81,83,85,87,89,91,93,95,97,99,101,103,105,107,109,111,113,115,117,119,-1,-1,-1,-1,-1,-1,-1,-1,-1,-1,-1,-1,-1,-1,-1,-1,-1,-1,-1,-1,-1,-1,-1,-1,-1,-1,-1,-1,-1,-1,-1,-1,-1,-1,-1,-1,-1,-1,-1,-1,-1,-1,-1,-1,-1,-1,-1,-1,-1,-1,-1,-1,-1,-1,-1,-1,-1,-1,-1,-1],"loss_changes":[6.329032E3,4.1830176E2,5.5617505E2,3.5834473E1,7.293274E1,1.3196097E2,1.4304236E2,1.9013672E0,5.220886E0,1.5012146E1,2.5110596E1,5.621835E1,3.964099E1,2.4141514E1,6.5678955E1,8.1103516E-1,0E0,2.8117065E0,2.6013336E0,6.23526E0,1.0754791E1,8.451088E0,1.194455E1,1.0927521E1,2.1965668E1,2.6125772E1,8.572411E0,1.2874355E1,1.1796591E1,1.3240051E1,6.3442383E1,1.3085938E-1,1.0054626E0,2.979187E0,4.6850586E0,3.3205414E-1,2.404789E0,2.9877124E0,3.0605774E0,6.400238E0,6.871826E0,1.0169601E1,3.5095527E0,2.0424185E0,1.0523573E1,6.267296E0,1.4266615E1,1.5226308E1,1.46386175E1,1.3617456E1,1.3351376E1,1.0092342E1,9.014526E0,4.795147E0,4.7125144E0,7.937557E0,1.0327572E1,3.5963058E0,9.441467E0,2.4758286E1,2.8160034E1,0E0,0E0,0E0,0E0,0E0,0E0,0E0,0E0,0E0,0E0,0E0,0E0,0E0,0E0,0E0,0E0,0E0,0E0,0E0,0E0,0E0,0E0,0E0,0E0,0E0,0E0,0E0,0E0,0E0,0E0,0E0,0E0,0E0,0E0,0E0,0E0,0E0,0E0,0E0,0E0,0E0,0E0,0E0,0E0,0E0,0E0,0E0,0E0,0E0,0E0,0E0,0E0,0E0,0E0,0E0,0E0,0E0,0E0,0E0,0E0],"parents":[2147483647,0,0,1,1,2,2,3,3,4,4,5,5,6,6,7,7,8,8,9,9,10,10,11,11,12,12,13,13,14,14,15,15,17,17,18,18,19,19,20,20,21,21,22,22,23,23,24,24,25,25,26,26,27,27,28,28,29,29,30,30,31,31,32,32,33,33,34,34,35,35,36,36,37,37,38,38,39,39,40,40,41,41,42,42,43,43,44,44,45,45,46,46,47,47,48,48,49,49,50,50,51,51,52,52,53,53,54,54,55,55,56,56,57,57,58,58,59,59,60,60],"right_children":[2,4,6,8,10,12,14,16,18,20,22,24,26,28,30,32,-1,34,36,38,40,42,44,46,48,50,52,54,56,58,60,62,64,66,68,70,72,74,76,78,80,82,84,86,88,90,92,94,96,98,100,102,104,106,108,110,112,114,116,118,120,-1,-1,-1,-1,-1,-1,-1,-1,-1,-1,-1,-1,-1,-1,-1,-1,-1,-1,-1,-1,-1,-1,-1,-1,-1,-1,-1,-1,-1,-1,-1,-1,-1,-1,-1,-1,-1,-1,-1,-1,-1,-1,-1,-1,-1,-1,-1,-1,-1,-1,-1,-1,-1,-1,-1,-1,-1,-1,-1,-1],"split_conditions":[8.869812E1,3.9180206E1,1.8848428E2,4.0354368E3,9.65773E3,1.776859E4,1.8717302E7,6.973E1,1.987E1,8.523017E6,1.9042028E7,1.5535048E7,4.4338344E7,-1.178E1,-8.822E1,1.0337581E7,-2.8446564E-2,7.789138E3,8.881194E6,6.5285E2,5.5945E3,5.130662E-3,-1.5016E2,8.331183E3,-3.918E1,2.952681E4,1.50426E3,-4.7633483E-4,3.040859E4,-7.6782174E-2,3.051583E4,3.779E1,1.023E1,1.6330432E-2,-5.552421E-3,9.2228E3,2.077E1,-3.8645357E-2,8.541817E3,1.629239E4,9.943877E-3,1.9155809E4,8.38021E1,8.527907E1,2.952681E4,2.077E1,1.0950648E7,1.22356804E2,4.1191856E7,2.7041E2,-7.6446496E-4,7.67E1,3.84441E3,1.9247797E2,8.312819E3,2.6287274E-3,8.865704E-4,-5.904204E-3,3.5503058E2,9.93065E3,-1.6382632E-3,-2.7471733E-1,-3.4889898E-1,-3.2973045E-1,-2.3899074E-1,-3.090014E-1,1.1736803E-1,-3.5311937E-2,-2.6917702E-1,-3.1544727E-1,-2.1366103E-1,5.0148383E-2,-1.9010168E-1,2.766421E-1,-9.98268E-2,-2.910065E-1,-2.1816915E-1,-2.4965507E-1,4.5241132E-2,-1.839717E-1,-9.928361E-2,-1.8296337E-1,-9.274229E-2,2.4833618E-2,4.1214812E-1,3.0647323E-1,-6.8841904E-2,-5.020444E-2,1.859651E-1,-2.2204171E-1,-8.22155E-2,-1.7372899E-1,-1.8629579E-2,-2.872338E-2,1.3437691E-1,-6.7837E-2,4.1638944E-2,-2.3084944E-1,2.0149937E-2,1.9708261E-1,6.667931E-2,4.8746648E-1,6.716145E-2,1.3906552E-1,2.8824332E-1,5.3082025E-1,1.6785717E-1,-2.8750098E-1,2.7827298E-2,-1.6016583E-1,-1.49173075E-2,1.5885028E-1,-6.465589E-2,5.101623E-1,4.642195E-2,2.1685448E-1,2.7383628E-1,2.7493019E-2,1.4427567E-1,2.691989E-1,1.8674101E-1],"split_indices":[7,7,7,9,1,1,5,6,6,5,5,5,5,6,6,5,0,9,5,0,3,10,6,9,6,1,4,12,2,12,3,4,6,11,10,9,6,11,8,4,12,8,7,7,1,6,5,7,5,4,12,6,4,7,8,12,11,11,7,8,12,0,0,0,0,0,0,0,0,0,0,0,0,0,0,0,0,0,0,0,0,0,0,0,0,0,0,0,0,0,0,0,0,0,0,0,0,0,0,0,0,0,0,0,0,0,0,0,0,0,0,0,0,0,0,0,0,0,0,0,0],"split_type":[0,0,0,0,0,0,0,0,0,0,0,0,0,0,0,0,0,0,0,0,0,0,0,0,0,0,0,0,0,0,0,0,0,0,0,0,0,0,0,0,0,0,0,0,0,0,0,0,0,0,0,0,0,0,0,0,0,0,0,0,0,0,0,0,0,0,0,0,0,0,0,0,0,0,0,0,0,0,0,0,0,0,0,0,0,0,0,0,0,0,0,0,0,0,0,0,0,0,0,0,0,0,0,0,0,0,0,0,0,0,0,0,0,0,0,0,0,0,0,0,0],"sum_hessian":[1.3177285E4,6.542174E3,6.6351113E3,4.6721733E3,1.8700007E3,2.2032163E3,4.431895E3,3.8634502E3,8.08723E2,1.1336183E3,7.363824E2,1.2448585E3,9.583576E2,3.5722668E2,4.0746682E3,3.8615815E3,1.8687164E0,6.875637E2,1.2115928E2,3.528555E2,7.807628E2,4.7071152E2,2.6567084E2,4.193102E2,8.2554834E2,7.281465E2,2.3021114E2,1.4136469E2,2.1586201E2,1.3313829E3,2.7432854E3,3.7604746E3,1.0110676E2,3.663378E2,3.2122595E2,4.0366802E1,8.079247E1,8.791881E0,3.440636E2,2.561617E2,5.2460114E2,4.5966516E2,1.1046346E1,1.1442919E1,2.5422794E2,2.0576875E2,2.1354146E2,2.1320892E2,6.123394E2,4.3987787E2,2.8826862E2,2.468188E1,2.0552925E2,7.532271E1,6.604198E1,1.4315164E2,7.2710365E1,2.4838018E1,1.3065449E3,1.0906113E3,1.6526741E3,2.3364805E1,3.7371099E3,6.993684E1,3.1169918E1,3.653332E2,1.0045986E0,8.237222E0,3.1298874E2,2.3858973E1,1.650783E1,3.5483468E0,7.7244125E1,1.4591392E0,7.3327413E0,2.5641107E2,8.765253E1,2.4964848E2,6.5132203E0,4.1030032E2,1.14300835E2,2.4546402E2,2.1420114E2,9.264152E0,1.7821938E0,1.0337714E1,1.1052042E0,2.3691884E2,1.7309086E1,1.6910162E2,3.666712E1,1.1133318E2,1.0220828E2,8.530367E1,1.2790524E2,4.6965988E2,1.4267955E2,1.9395885E1,4.2048196E2,1.2715453E2,1.6111409E2,1.6980404E1,7.701477E0,1.567535E2,4.8775764E1,2.7187517E0,7.260396E1,3.5733333E0,6.2468643E1,8.8218666E1,5.4932983E1,3.4738598E1,3.7971767E1,2.3006758E1,1.8312609E0,4.099583E2,8.965866E2,2.0073596E2,8.898753E2,5.889769E2,1.0636971E3],"tree_param":{"num_deleted":"0","num_feature":"13","num_nodes":"121","size_leaf_vector":"1"}},{"base_weights":[-2.1511173E-1,-9.3293506E-1,2.3815659E-1,-1.0606344E0,-5.429583E-1,-1.1158691E-1,3.7331396E-1,-1.0993155E0,-8.15238E-1,-7.1347004E-1,-3.9968774E-1,-2.5924882E-1,1.2079267E-1,2.0527253E-1,4.8348328E-1,-1.1052666E0,-7.084743E-1,-8.248118E-1,3.2557583E-1,-7.4732685E-1,-2.2731766E-1,-4.9423596E-1,-1.3036138E-1,-4.17583E-1,-1.28853E-1,-7.953812E-1,1.5302768E-1,5.640963E-1,1.327825E-1,5.745615E-1,4.0562192E-1,-1.1149048E0,-1.0261338E0,2.8912342E-1,-8.36309E-1,-9.1282016E-1,-7.048983E-1,-4.742064E-1,3.490151E-1,-8.0241907E-1,-5.099736E-1,4.3987033E-1,-3.9261132E-1,-5.4527587E-1,-1.2592301E-1,4.6112955E-1,-1.5199329E-1,-5.5283165E-1,-3.3897313E-1,-7.9374805E-2,-7.914959E-1,3.1548645E-2,-1.0066507E0,4.3552497E-1,8.070618E-2,8.7021655E-1,4.883433E-1,-6.17238E-2,2.1084587E-1,1.0585331E0,5.617104E-1,3.057489E-1,4.9352035E-1,-2.483259E-1,-3.3499876E-1,-3.123123E-1,-1.420463E-1,2.6668227E-1,-2.2199246E-1,-2.6218823E-1,6.736378E-2,-2.977322E-1,-2.2410417E-1,6.471244E-2,-2.2053833E-1,-2.654971E-2,-1.8502235E-1,-2.4536908E-1,9.472301E-3,-2.0596693E-1,-1.0270768E-1,-1.5872191E-1,3.3499944E-1,-1.1390306E-1,-1.8859334E-1,-7.373276E-2,3.5860795E-1,-9.4695225E-2,1.3756405E-2,-1.8034025E-1,1.21416554E-1,-1.5355869E-1,-6.566148E-2,-6.6994905E-2,2.5730664E-2,-2.555502E-1,-4.991542E-2,-1.8389916E-1,5.207444E-1,-3.1301564E-1,-3.444683E-2,1.1635957E-1,4.3197015E-1,1.5021401E-2,1.7028797E-1,3.0391377E-1,6.377288E-2,2.1612395E-1,1.0756833E-1,-9.109076E-2,6.9759907E-3,-6.473499E-2,7.076501E-2,9.0854645E-2,3.6468655E-1,1.3107003E-1,1.8391395E-1,3.8716834E-2,1.16242655E-1,1.8100391E-1,1.2044508E-1],"categories":[],"categories_nodes":[],"categories_segments":[],"categories_sizes":[],"default_left":[0,0,0,0,0,0,0,0,0,0,0,0,0,0,0,0,0,0,0,0,0,0,0,0,0,0,0,0,0,0,0,0,0,0,0,0,0,0,0,0,0,0,0,0,0,0,0,0,0,0,0,0,0,0,0,0,0,0,0,0,0,0,0,0,0,0,0,0,0,0,0,0,0,0,0,0,0,0,0,0,0,0,0,0,0,0,0,0,0,0,0,0,0,0,0,0,0,0,0,0,0,0,0,0,0,0,0,0,0,0,0,0,0,0,0,0,0,0,0,0,0],"id":2,"left_children":[1,3,5,7,9,11,13,15,17,19,21,23,25,27,29,31,33,35,37,39,41,43,45,47,49,51,53,55,57,59,61,63,65,67,69,71,73,75,-1,77,79,-1,81,83,85,-1,87,89,91,93,95,97,99,101,103,105,107,109,111,113,115,117,119,-1,-1,-1,-1,-1,-1,-1,-1,-1,-1,-1,-1,-1,-1,-1,-1,-1,-1,-1,-1,-1,-1,-1,-1,-1,-1,-1,-1,-1,-1,-1,-1,-1,-1,-1,-1,-1,-1,-1,-1,-1,-1,-1,-1,-1,-1,-1,-1,-1,-1,-1,-1,-1,-1,-1,-1,-1,-1],"loss_changes":[4.0028684E3,2.3655322E2,3.5652246E2,3.3142822E1,2.8459442E1,7.21851E1,1.0060309E2,6.415283E0,5.6438293E0,8.652008E0,1.6275284E1,2.6498688E1,2.427067E1,5.5998688E1,2.3060852E1,1.1791992E0,6.5163174E0,4.5102234E0,3.776591E0,6.137329E0,1.0746567E1,8.852844E0,6.2966294E0,5.983017E0,2.3107533E1,4.9154053E0,1.6120243E1,7.969757E0,2.726413E1,8.806244E0,1.5424957E1,4.4067383E-1,2.3356934E0,4.5661902E0,1.9485168E0,2.931961E0,6.033188E0,1.19844735E-1,0E0,5.248291E0,2.6376133E0,0E0,7.5709815E0,5.511696E0,9.646862E0,0E0,5.416816E0,1.0037048E1,7.562916E0,1.5677525E1,1.7060909E0,8.377796E0,6.106224E-1,7.145775E0,9.380997E0,6.409832E0,8.550522E0,1.0589497E1,1.373378E1,4.1388474E0,9.179932E0,1.1981743E1,9.2803955E0,0E0,0E0,0E0,0E0,0E0,0E0,0E0,0E0,0E0,0E0,0E0,0E0,0E0,0E0,0E0,0E0,0E0,0E0,0E0,0E0,0E0,0E0,0E0,0E0,0E0,0E0,0E0,0E0,0E0,0E0,0E0,0E0,0E0,0E0,0E0,0E0,0E0,0E0,0E0,0E0,0E0,0E0,0E0,0E0,0E0,0E0,0E0,0E0,0E0,0E0,0E0,0E0,0E0,0E0,0E0,0E0,0E0,0E0],"parents":[2147483647,0,0,1,1,2,2,3,3,4,4,5,5,6,6,7,7,8,8,9,9,10,10,11,11,12,12,13,13,14,14,15,15,16,16,17,17,18,18,19,19,20,20,21,21,22,22,23,23,24,24,25,25,26,26,27,27,28,28,29,29,30,30,31,31,32,32,33,33,34,34,35,35,36,36,37,37,39,39,40,40,42,42,43,43,44,44,46,46,47,47,48,48,49,49,50,50,51,51,52,52,53,53,54,54,55,55,56,56,57,57,58,58,59,59,60,60,61,61,62,62],"right_children":[2,4,6,8,10,12,14,16,18,20,22,24,26,28,30,32,34,36,38,40,42,44,46,48,50,52,54,56,58,60,62,64,66,68,70,72,74,76,-1,78,80,-1,82,84,86,-1,88,90,92,94,96,98,100,102,104,106,108,110,112,114,116,118,120,-1,-1,-1,-1,-1,-1,-1,-1,-1,-1,-1,-1,-1,-1,-1,-1,-1,-1,-1,-1,-1,-1,-1,-1,-1,-1,-1,-1,-1,-1,-1,-1,-1,-1,-1,-1,-1,-1,-1,-1,-1,-1,-1,-1,-1,-1,-1,-1,-1,-1,-1,-1,-1,-1,-1,-1,-1,-1],"split_conditions":[7.082156E1,6.75871E3,1.533365E2,8.523017E6,4.4162724E1,1.776859E4,4.0519096E7,5.0842613E1,6.9729775E3,2.8677192E7,1.700739E4,1.7203294E7,6.2451315E6,-8.822E1,-2.098462E-3,2.6887957E3,-8.809524E-3,2.71858E-3,3.2415E3,2.9865624E-3,1.68652E3,4.418536E-3,-9.411019E-3,9.214833E6,1.661929E4,1.3416E2,-6.541E1,-9.882943E-3,1.8717302E7,-7.6782174E-2,4.6544235E2,3.779E1,8.185947E-3,1.93476E3,3.103E1,4.758677E1,3.1707878E-3,6.49486E3,3.490151E-1,2.9416568E4,1.272E1,4.3987033E-1,1.6462168E-2,-1.536E1,1.166584E4,4.6112955E-1,3.52E0,1.151901E4,7.68052E3,8.541817E3,1.446423E2,3.6915912E6,2.9086706E-3,-1.9694245E-3,7.4244456E7,-3.4285516E-3,6.3952E2,1.0545826E4,7.66955E3,6.39209E3,2.651123E4,2.8889936E-3,8.609258E-3,-2.483259E-1,-3.3499876E-1,-3.123123E-1,-1.420463E-1,2.6668227E-1,-2.2199246E-1,-2.6218823E-1,6.736378E-2,-2.977322E-1,-2.2410417E-1,6.471244E-2,-2.2053833E-1,-2.654971E-2,-1.8502235E-1,-2.4536908E-1,9.472301E-3,-2.0596693E-1,-1.0270768E-1,-1.5872191E-1,3.3499944E-1,-1.1390306E-1,-1.8859334E-1,-7.373276E-2,3.5860795E-1,-9.4695225E-2,1.3756405E-2,-1.8034025E-1,1.21416554E-1,-1.5355869E-1,-6.566148E-2,-6.6994905E-2,2.5730664E-2,-2.555502E-1,-4.991542E-2,-1.8389916E-1,5.207444E-1,-3.1301564E-1,-3.444683E-2,1.1635957E-1,4.3197015E-1,1.5021401E-2,1.7028797E-1,3.0391377E-1,6.377288E-2,2.1612395E-1,1.0756833E-1,-9.109076E-2,6.9759907E-3,-6.473499E-2,7.076501E-2,9.0854645E-2,3.6468655E-1,1.3107003E-1,1.8391395E-1,3.8716834E-2,1.16242655E-1,1.8100391E-1,1.2044508E-1],"split_indices":[7,1,7,5,7,1,5,7,9,5,2,5,5,6,11,9,11,12,4,11,4,10,12,5,1,4,6,12,5,12,7,4,11,4,6,7,12,0,0,9,6,0,12,6,2,0,6,2,8,8,7,5,11,10,5,10,4,8,3,2,0,12,12,0,0,0,0,0,0,0,0,0,0,0,0,0,0,0,0,0,0,0,0,0,0,0,0,0,0,0,0,0,0,0,0,0,0,0,0,0,0,0,0,0,0,0,0,0,0,0,0,0,0,0,0,0,0,0,0,0,0],"split_type":[0,0,0,0,0,0,0,0,0,0,0,0,0,0,0,0,0,0,0,0,0,0,0,0,0,0,0,0,0,0,0,0,0,0,0,0,0,0,0,0,0,0,0,0,0,0,0,0,0,0,0,0,0,0,0,0,0,0,0,0,0,0,0,0,0,0,0,0,0,0,0,0,0,0,0,0,0,0,0,0,0,0,0,0,0,0,0,0,0,0,0,0,0,0,0,0,0,0,0,0,0,0,0,0,0,0,0,0,0,0,0,0,0,0,0,0,0,0,0,0,0],"sum_hessian":[1.2300959E4,4.760648E3,7.5403105E3,3.585005E3,1.1756431E3,2.1017742E3,5.4385366E3,3.0938503E3,4.9115466E2,5.349725E2,6.406706E2,1.2850769E3,8.1669727E2,2.1547527E3,3.2837837E3,3.045649E3,4.8201252E1,4.8734183E2,3.812836E0,4.9963913E2,3.533331E1,4.7358237E2,1.6708826E2,5.7936993E2,7.05707E2,2.6953674E1,7.897436E2,3.6100513E2,1.7937476E3,1.5105001E3,1.7732836E3,2.7033035E3,3.4234564E2,5.3317337E0,4.286952E1,2.772482E2,2.1009364E2,2.1727202E0,1.6401156E0,4.035827E2,9.605643E1,2.4420702E0,3.289124E1,4.155201E2,5.8062256E1,1.2426628E0,1.6584558E2,2.1074667E2,3.686233E2,6.5771643E2,4.7990547E1,5.658077E0,2.1295599E1,1.5994713E2,6.2979645E2,6.9532875E1,2.9147226E2,5.1378546E2,1.2799622E3,3.6966614E1,1.4735336E3,8.321953E2,9.4108826E2,1.931803E1,2.6839854E3,3.3249313E2,9.852517E0,3.4544668E0,1.877267E0,4.157029E1,1.2992315E0,1.839362E2,9.331198E1,6.484338E0,2.036093E2,1.0236254E0,1.1490948E0,3.9624817E2,7.3345532E0,4.526914E1,5.078729E1,3.0759558E1,2.131683E0,1.4099974E2,2.7452036E2,5.3979767E1,4.082489E0,9.043961E1,7.5405975E1,2.0098068E2,9.765984E0,1.4976741E2,2.1885588E2,3.512285E2,3.064879E2,4.343532E1,4.5552273E0,4.5700283E0,1.0880483E0,2.0289911E1,1.0056872E0,1.5402452E2,5.9226155E0,5.935554E2,3.6241005E1,5.6681988E1,1.2850884E1,1.0290748E2,1.8856477E2,1.3289317E2,3.8089227E2,7.053053E1,1.2094316E3,6.865866E0,3.0100748E1,4.3221805E2,1.0413154E3,2.640021E2,5.6819324E2,4.265443E2,5.1454395E2],"tree_param":{"num_deleted":"0","num_feature":"13","num_nodes":"121","size_leaf_vector":"1"}},{"base_weights":[-1.7598388E-1,-9.320156E-1,1.3092992E-1,-1.0605451E0,-6.206084E-1,-1.3712755E-1,2.4775209E-1,-1.072102E0,-8.246143E-1,-8.3817667E-1,-5.346509E-1,-2.530909E-1,6.461963E-2,1.4722367E-1,3.298554E-1,-1.0797731E0,-9.6660876E-1,-8.4536254E-1,2.1144806E-1,-8.6945534E-1,-3.454531E-1,-6.923279E-1,-4.2944306E-1,-4.069727E-1,-1.3351457E-1,-2.5453418E-1,1.1681099E-1,2.7048853E-1,6.0867958E-2,8.230954E-2,3.447423E-1,-7.4136096E-1,-3.2460967E-1,-1.0101831E0,-6.746405E-1,-2.7542751E-2,-8.6613774E-1,1.2428837E-1,-2.8088627E-2,-2.5803837E-1,-8.832692E-1,2.0894197E-1,-5.364876E-1,8.0678E-2,-7.163874E-1,-4.7187653E-1,1.2822787E-1,-5.538817E-1,-2.9494664E-1,-1.0276007E-1,-6.34969E-1,1.5596756E-1,-3.559053E-1,3.3787063E-1,5.779283E-2,1.467563E-1,4.2345026E-1,-5.7848167E-2,1.5152538E-1,3.951561E-1,-6.382822E-2,3.6568913E-1,1.8937239E-1,-2.7825624E-1,-6.6626705E-2,-3.1777203E-1,-2.5642017E-1,1.03735E-1,-2.223876E-1,2.4026538E-1,-2.0617288E-1,-2.8123504E-1,-2.098199E-1,-2.5128585E-1,1.1844795E-1,-2.4155423E-2,-2.6781338E-1,-1.7505822E-1,1.6573131E-1,1.14595495E-1,-1.9352667E-1,-2.2278474E-1,1.2206032E-1,-2.521734E-1,-1.8518953E-1,-1.6747944E-1,-6.888295E-2,1.3617246E-1,-9.827244E-2,1.8653125E-1,-1.7452279E-1,-1.4387892E-1,-4.302898E-2,1.7483997E-1,-3.6742505E-2,-2.3258808E-1,-2.9077966E-2,1.4904228E-1,-1.713992E-1,-1.2122005E-1,1.7216244E-1,1.4107771E-1,-1.3396255E-2,-2.7640035E-2,4.6761416E-2,1.1859212E-1,1.7148986E-3,1.7505044E-1,9.814701E-2,1.2021015E-1,-3.281787E-2,2.9354746E-2,9.139309E-2,1.655883E-1,-6.483503E-2,-3.864718E-2,1.520608E-1,1.0411417E-1,1.7544743E-1,-2.6483252E-3,8.655538E-2],"categories":[],"categories_nodes":[],"categories_segments":[],"categories_sizes":[],"default_left":[0,0,0,0,0,0,0,0,0,0,0,0,0,0,0,0,0,0,0,0,0,0,0,0,0,0,0,0,0,0,0,0,0,0,0,0,0,0,0,0,0,0,0,0,0,0,0,0,0,0,0,0,0,0,0,0,0,0,0,0,0,0,0,0,0,0,0,0,0,0,0,0,0,0,0,0,0,0,0,0,0,0,0,0,0,0,0,0,0,0,0,0,0,0,0,0,0,0,0,0,0,0,0,0,0,0,0,0,0,0,0,0,0,0,0,0,0,0,0,0,0],"id":3,"left_children":[1,3,5,7,9,11,13,15,17,19,21,23,25,27,29,31,33,35,37,39,41,43,45,47,49,51,53,55,57,59,61,63,-1,65,67,69,71,-1,-1,73,75,77,79,81,83,85,87,89,91,93,95,97,99,101,103,105,107,109,111,113,115,117,119,-1,-1,-1,-1,-1,-1,-1,-1,-1,-1,-1,-1,-1,-1,-1,-1,-1,-1,-1,-1,-1,-1,-1,-1,-1,-1,-1,-1,-1,-1,-1,-1,-1,-1,-1,-1,-1,-1,-1,-1,-1,-1,-1,-1,-1,-1,-1,-1,-1,-1,-1,-1,-1,-1,-1,-1,-1,-1],"loss_changes":[2.6715115E3,1.323977E2,2.564879E2,5.528076E0,1.7760254E1,5.8186108E1,4.7031433E1,7.675781E-1,2.6325378E0,3.921936E0,1.1325821E1,2.9001503E1,1.5159693E1,2.7298912E1,1.1539307E1,7.866211E-1,1.3704529E0,1.8808899E0,2.2697708E-1,1.9422913E0,2.0198026E0,5.242462E0,1.0067627E1,1.119236E1,1.3661388E1,5.3809814E0,1.0174312E1,1.9940163E1,1.6262995E1,8.226079E0,9.5660095E0,1.433259E0,0E0,1.4953613E-1,1.8856277E0,2.632712E0,6.439438E-1,0E0,0E0,3.0134137E0,1.8295746E0,1.7748513E0,1.6106448E0,2.8033102E0,2.809372E0,8.101028E0,4.704288E0,1.0102409E1,1.09436E1,1.1422315E1,3.7935753E0,6.7388687E0,4.841342E0,8.348499E0,9.100385E0,2.0532574E1,7.0846634E0,1.5517203E1,7.010479E0,5.606867E0,4.632358E0,1.0450195E1,6.954935E0,0E0,0E0,0E0,0E0,0E0,0E0,0E0,0E0,0E0,0E0,0E0,0E0,0E0,0E0,0E0,0E0,0E0,0E0,0E0,0E0,0E0,0E0,0E0,0E0,0E0,0E0,0E0,0E0,0E0,0E0,0E0,0E0,0E0,0E0,0E0,0E0,0E0,0E0,0E0,0E0,0E0,0E0,0E0,0E0,0E0,0E0,0E0,0E0,0E0,0E0,0E0,0E0,0E0,0E0,0E0,0E0,0E0,0E0],"parents":[2147483647,0,0,1,1,2,2,3,3,4,4,5,5,6,6,7,7,8,8,9,9,10,10,11,11,12,12,13,13,14,14,15,15,16,16,17,17,18,18,19,19,20,20,21,21,22,22,23,23,24,24,25,25,26,26,27,27,28,28,29,29,30,30,31,31,33,33,34,34,35,35,36,36,39,39,40,40,41,41,42,42,43,43,44,44,45,45,46,46,47,47,48,48,49,49,50,50,51,51,52,52,53,53,54,54,55,55,56,56,57,57,58,58,59,59,60,60,61,61,62,62],"right_children":[2,4,6,8,10,12,14,16,18,20,22,24,26,28,30,32,34,36,38,40,42,44,46,48,50,52,54,56,58,60,62,64,-1,66,68,70,72,-1,-1,74,76,78,80,82,84,86,88,90,92,94,96,98,100,102,104,106,108,110,112,114,116,118,120,-1,-1,-1,-1,-1,-1,-1,-1,-1,-1,-1,-1,-1,-1,-1,-1,-1,-1,-1,-1,-1,-1,-1,-1,-1,-1,-1,-1,-1,-1,-1,-1,-1,-1,-1,-1,-1,-1,-1,-1,-1,-1,-1,-1,-1,-1,-1,-1,-1,-1,-1,-1,-1,-1,-1,-1,-1,-1],"split_conditions":[5.4310444E1,4.11002E3,1.505078E2,9.787712E6,2.701869E1,1.776859E4,4.5175896E7,2.6887957E3,6.973E1,2.723E1,8.67916E6,1.5535048E7,1.0153998E7,-1.6382632E-3,9.93065E3,3.779E1,4.096155E-3,2.6613E3,9.858E1,-5.552421E-3,3.590577E-3,-1.07608205E-2,2.651123E4,7.68052E3,1.65724E4,-2.6956026E-3,-4.1716695E-3,3.0461842E4,2.5432762E7,-1.1118322E-2,5.682763E4,5.9318E2,-3.2460967E-1,1.61597E3,4.291146E-3,3.8435962E3,1.023E1,1.2428837E-1,-2.8088627E-2,-6.6440008E-3,1.9023104E6,5.9308655E6,5.147775E3,-3.590722E-3,8.541817E3,4.394301E-3,1.7203294E7,6.129766E2,9.1897E2,-3.8645357E-2,3.2415E3,1.22356804E2,4.078208E4,-8.19E0,2.342166E4,-3.918E1,6.1118E2,-8.432E1,4.3419637E4,1.24567816E8,5.5589538E-2,5.354644E4,5.9246E4,-2.7825624E-1,-6.6626705E-2,-3.1777203E-1,-2.5642017E-1,1.03735E-1,-2.223876E-1,2.4026538E-1,-2.0617288E-1,-2.8123504E-1,-2.098199E-1,-2.5128585E-1,1.1844795E-1,-2.4155423E-2,-2.6781338E-1,-1.7505822E-1,1.6573131E-1,1.14595495E-1,-1.9352667E-1,-2.2278474E-1,1.2206032E-1,-2.521734E-1,-1.8518953E-1,-1.6747944E-1,-6.888295E-2,1.3617246E-1,-9.827244E-2,1.8653125E-1,-1.7452279E-1,-1.4387892E-1,-4.302898E-2,1.7483997E-1,-3.6742505E-2,-2.3258808E-1,-2.9077966E-2,1.4904228E-1,-1.713992E-1,-1.2122005E-1,1.7216244E-1,1.4107771E-1,-1.3396255E-2,-2.7640035E-2,4.6761416E-2,1.1859212E-1,1.7148986E-3,1.7505044E-1,9.814701E-2,1.2021015E-1,-3.281787E-2,2.9354746E-2,9.139309E-2,1.655883E-1,-6.483503E-2,-3.864718E-2,1.520608E-1,1.0411417E-1,1.7544743E-1,-2.6483252E-3,8.655538E-2],"split_indices":[7,1,7,5,7,1,5,9,6,6,5,5,5,12,8,4,11,4,6,10,10,12,0,8,3,12,11,9,5,10,2,2,0,4,11,9,6,0,0,10,5,5,9,10,8,11,5,9,4,11,4,7,9,6,9,6,4,6,8,5,11,2,1,0,0,0,0,0,0,0,0,0,0,0,0,0,0,0,0,0,0,0,0,0,0,0,0,0,0,0,0,0,0,0,0,0,0,0,0,0,0,0,0,0,0,0,0,0,0,0,0,0,0,0,0,0,0,0,0,0,0],"split_type":[0,0,0,0,0,0,0,0,0,0,0,0,0,0,0,0,0,0,0,0,0,0,0,0,0,0,0,0,0,0,0,0,0,0,0,0,0,0,0,0,0,0,0,0,0,0,0,0,0,0,0,0,0,0,0,0,0,0,0,0,0,0,0,0,0,0,0,0,0,0,0,0,0,0,0,0,0,0,0,0,0,0,0,0,0,0,0,0,0,0,0,0,0,0,0,0,0,0,0,0,0,0,0,0,0,0,0,0,0,0,0,0,0,0,0,0,0,0,0,0,0],"sum_hessian":[1.1511796E4,3.323316E3,8.1884795E3,2.3506914E3,9.7262463E2,2.485389E3,5.703091E3,2.2375432E3,1.1314813E2,2.729657E2,6.9965894E2,1.5780682E3,9.073207E2,2.5651187E3,3.137972E3,2.0772551E3,1.6028821E2,1.11107155E2,2.0409782E0,2.5595291E2,1.701278E1,2.7777374E2,4.218852E2,6.889982E2,8.8906995E2,1.2697608E2,7.8034454E2,1.055853E3,1.5092656E3,1.7837642E2,2.9595955E3,1.5957617E1,2.0612974E3,1.3733237E2,2.2955833E1,2.8101687E0,1.0829698E2,1.010856E0,1.0301222E0,6.0898094E0,2.4986311E2,4.335916E0,1.2676863E1,8.313588E0,2.6946014E2,3.921966E2,2.9688602E1,2.9638284E2,3.9261542E2,8.38829E2,5.0240955E1,2.5039639E1,1.0193644E2,1.6343904E2,6.169055E2,5.847791E2,4.7107397E2,6.536591E2,8.556065E2,5.6251404E1,1.22125015E2,2.6067961E3,3.5279932E2,1.1167762E1,4.7898545E0,9.996966E1,3.7362713E1,1.1507094E0,2.1805124E1,1.1508989E0,1.6592698E0,7.261706E1,3.5679924E1,3.0760522E0,3.013757E0,3.0155108E0,2.468476E2,1.0998021E0,3.2361138E0,1.0742558E0,1.1602607E1,1.9968803E0,6.3167076E0,1.16262505E2,1.5319765E2,2.8814465E2,1.0405194E2,1.7318405E1,1.2370197E1,6.3676686E0,2.9001517E2,1.7598338E2,2.1663202E2,2.2649857E1,8.1617914E2,3.9498554E1,1.0742402E1,1.7265345E1,7.7742934E0,9.745386E1,4.482581E0,1.2124714E2,4.2191906E1,2.4399179E2,3.7291373E2,2.1104959E2,3.7372952E2,1.7505402E2,2.9601996E2,6.536749E1,5.882916E2,6.347362E2,2.208703E2,4.484477E1,1.1406639E1,1.10333595E2,1.1791421E1,2.404803E3,2.0199324E2,1.1793946E2,2.3485986E2],"tree_param":{"num_deleted":"0","num_feature":"13","num_nodes":"121","size_leaf_vector":"1"}},{"base_weights":[-1.4219338E-1,-8.933144E-1,8.180702E-2,-1.0303183E0,-5.503082E-1,-1.8499988E-1,1.4895529E-1,-1.0514455E0,-8.353174E-1,-7.485783E-1,-4.6208525E-1,-3.9669946E-1,-8.3660305E-2,3.3516373E-2,2.086351E-1,-6.540093E-1,-3.16311E-1,-8.484563E-1,2.0839965E-1,-7.968865E-1,-3.480083E-1,-6.2155795E-1,-3.5137767E-1,-5.35713E-1,-2.9384923E-1,-2.2797133E-1,2.8521378E-2,2.2624287E-1,-3.0677125E-2,2.8682217E-1,1.7233069E-1,-8.968211E-1,3.3384067E-1,-9.543577E-1,-7.181744E-1,2.720128E-1,-1.7541888E-1,6.7977145E-2,-8.085598E-1,-4.9081525E-1,3.6937106E-1,7.226792E-2,-6.4921755E-1,-3.8019556E-1,4.421464E-1,-1.0828348E-1,-5.8656627E-1,-3.7102908E-1,1.9821933E-2,-2.414932E-1,8.532236E-1,2.5987154E-1,-3.9224535E-2,3.2908815E-1,7.530848E-2,-1.05638884E-1,1.20163046E-1,2.4940577E-1,4.521335E-1,5.6009763E-1,1.6350861E-1,-2.891069E-1,-1.1055903E-1,3.7459728E-1,-1.9206764E-1,-2.890983E-1,-1.9086923E-2,-2.5001028E-1,-1.09248556E-1,2.6100624E-1,-1.9435142E-1,-1.1924246E-1,-2.5117248E-1,-2.3467714E-1,-6.564098E-2,3.4755373E-1,-1.2924081E-1,1.7688882E-1,-2.3862329E-1,-2.7244616E-1,-1.7111763E-1,-1.409153E-1,-7.276188E-2,-2.2803447E-1,2.1829742E-1,-1.15108825E-1,2.4227217E-1,-2.0628832E-1,-1.2063136E-1,1.3423955E-1,-1.2096451E-1,5.236252E-2,-1.4690673E-1,1.6119418E-1,-7.73252E-2,-1.7699347E-1,6.0116065E-1,1.1593002E-1,-6.955118E-3,-6.0336735E-2,9.349333E-3,7.333806E-2,1.9172312E-1,-3.834762E-2,6.877005E-2,-4.27244E-2,9.201246E-2,6.588538E-2,-1.3521737E-3,2.1509887E-1,7.082149E-2,8.9258485E-2,1.9027223E-1,5.711766E-2,2.431516E-1,4.1853424E-2,8.7850556E-2],"categories":[],"categories_nodes":[],"categories_segments":[],"categories_sizes":[],"default_left":[0,0,0,0,0,0,0,0,0,0,0,0,0,0,0,0,0,0,0,0,0,0,0,0,0,0,0,0,0,0,0,0,0,0,0,0,0,0,0,0,0,0,0,0,0,0,0,0,0,0,0,0,0,0,0,0,0,0,0,0,0,0,0,0,0,0,0,0,0,0,0,0,0,0,0,0,0,0,0,0,0,0,0,0,0,0,0,0,0,0,0,0,0,0,0,0,0,0,0,0,0,0,0,0,0,0,0,0,0,0,0,0,0,0,0,0,0],"id":4,"left_children":[1,3,5,7,9,11,13,15,17,19,21,23,25,27,29,31,-1,33,35,37,39,41,43,45,47,49,51,53,55,57,59,61,63,65,67,-1,-1,69,71,73,75,77,79,81,83,85,87,89,91,93,95,97,99,101,103,105,107,109,111,113,115,-1,-1,-1,-1,-1,-1,-1,-1,-1,-1,-1,-1,-1,-1,-1,-1,-1,-1,-1,-1,-1,-1,-1,-1,-1,-1,-1,-1,-1,-1,-1,-1,-1,-1,-1,-1,-1,-1,-1,-1,-1,-1,-1,-1,-1,-1,-1,-1,-1,-1,-1,-1,-1,-1,-1,-1],"loss_changes":[1.8275283E3,1.1668677E2,1.4993341E2,6.4624023E0,1.2148651E1,3.607017E1,4.6051697E1,1.1745605E0,2.632103E0,3.9479294E0,8.555199E0,7.6279297E0,1.8451332E1,2.8209345E1,1.2459671E1,3.7410274E0,0E0,1.756897E0,2.2076278E0,2.014305E0,2.7705395E0,3.9297943E0,6.9283447E0,4.9431534E0,7.63768E0,7.492859E0,1.0070988E1,8.818436E0,1.9358086E1,8.521294E0,1.0212219E1,6.1300278E-2,3.971441E0,7.22641E-1,3.098053E0,0E0,0E0,2.5770855E0,1.9259491E0,1.5338626E0,3.5089345E0,4.354927E0,3.4553833E0,3.4080887E0,4.267893E0,6.79669E0,3.5566788E0,6.8453827E0,5.066637E0,6.3811474E0,1.1772087E1,5.222316E0,5.674448E0,8.724499E0,7.288512E0,1.7383198E1,7.0492105E0,6.9415894E0,7.030216E0,6.010332E0,9.1032715E0,0E0,0E0,0E0,0E0,0E0,0E0,0E0,0E0,0E0,0E0,0E0,0E0,0E0,0E0,0E0,0E0,0E0,0E0,0E0,0E0,0E0,0E0,0E0,0E0,0E0,0E0,0E0,0E0,0E0,0E0,0E0,0E0,0E0,0E0,0E0,0E0,0E0,0E0,0E0,0E0,0E0,0E0,0E0,0E0,0E0,0E0,0E0,0E0,0E0,0E0,0E0,0E0,0E0,0E0,0E0,0E0],"parents":[2147483647,0,0,1,1,2,2,3,3,4,4,5,5,6,6,7,7,8,8,9,9,10,10,11,11,12,12,13,13,14,14,15,15,17,17,18,18,19,19,20,20,21,21,22,22,23,23,24,24,25,25,26,26,27,27,28,28,29,29,30,30,31,31,32,32,33,33,34,34,37,37,38,38,39,39,40,40,41,41,42,42,43,43,44,44,45,45,46,46,47,47,48,48,49,49,50,50,51,51,52,52,53,53,54,54,55,55,56,56,57,57,58,58,59,59,60,60],"right_children":[2,4,6,8,10,12,14,16,18,20,22,24,26,28,30,32,-1,34,36,38,40,42,44,46,48,50,52,54,56,58,60,62,64,66,68,-1,-1,70,72,74,76,78,80,82,84,86,88,90,92,94,96,98,100,102,104,106,108,110,112,114,116,-1,-1,-1,-1,-1,-1,-1,-1,-1,-1,-1,-1,-1,-1,-1,-1,-1,-1,-1,-1,-1,-1,-1,-1,-1,-1,-1,-1,-1,-1,-1,-1,-1,-1,-1,-1,-1,-1,-1,-1,-1,-1,-1,-1,-1,-1,-1,-1,-1,-1,-1,-1,-1,-1,-1,-1],"split_conditions":[4.9590664E1,4.17357E3,9.93065E3,5.9308655E6,2.701869E1,1.4243675E7,3.1214946E7,2.126329E4,6.973E1,2.6251052E-3,8.67916E6,7.377527E1,1.14016396E2,-4.1971607E-3,-5.904204E-3,5.9318E2,-3.16311E-1,2.6887957E3,3.81285E3,1.9023104E6,9.2228E3,-3.974914E-3,2.9416568E4,-8.087098E-3,2.168E1,9.91735E3,-1.5659789E-2,5.7785062E-5,3.32894E4,-2.5115786E-3,-2.8108973E-2,9.045811E-3,6.2761E2,2.5162822E8,3.2139577E-3,2.720128E-1,-1.7541888E-1,-5.4256972E-5,-2.587E1,3.7276235E-3,3.590577E-3,7.190483E6,4.198607E6,2.4546457E-3,9.787712E6,8.1797437E3,2.8320528E-3,-5.405E1,4.993E1,-5.4047436E-2,3.28516E3,-3.8714802E-3,7.09152E3,-9.238382E-4,-8.918961E-3,8.912E1,2.077E1,-5.853462E-2,-9.862E1,2.27901E4,3.0342E2,-2.891069E-1,-1.1055903E-1,3.7459728E-1,-1.9206764E-1,-2.890983E-1,-1.9086923E-2,-2.5001028E-1,-1.09248556E-1,2.6100624E-1,-1.9435142E-1,-1.1924246E-1,-2.5117248E-1,-2.3467714E-1,-6.564098E-2,3.4755373E-1,-1.2924081E-1,1.7688882E-1,-2.3862329E-1,-2.7244616E-1,-1.7111763E-1,-1.409153E-1,-7.276188E-2,-2.2803447E-1,2.1829742E-1,-1.15108825E-1,2.4227217E-1,-2.0628832E-1,-1.2063136E-1,1.3423955E-1,-1.2096451E-1,5.236252E-2,-1.4690673E-1,1.6119418E-1,-7.73252E-2,-1.7699347E-1,6.0116065E-1,1.1593002E-1,-6.955118E-3,-6.0336735E-2,9.349333E-3,7.333806E-2,1.9172312E-1,-3.834762E-2,6.877005E-2,-4.27244E-2,9.201246E-2,6.588538E-2,-1.3521737E-3,2.1509887E-1,7.082149E-2,8.9258485E-2,1.9027223E-1,5.711766E-2,2.431516E-1,4.1853424E-2,8.7850556E-2],"split_indices":[7,2,8,5,7,5,5,5,6,10,5,7,7,12,11,2,0,9,1,5,9,10,9,11,6,0,11,10,1,12,12,12,0,5,10,0,0,11,6,11,10,5,5,12,5,9,11,6,6,12,4,10,0,10,12,6,6,11,6,3,6,0,0,0,0,0,0,0,0,0,0,0,0,0,0,0,0,0,0,0,0,0,0,0,0,0,0,0,0,0,0,0,0,0,0,0,0,0,0,0,0,0,0,0,0,0,0,0,0,0,0,0,0,0,0,0,0],"split_type":[0,0,0,0,0,0,0,0,0,0,0,0,0,0,0,0,0,0,0,0,0,0,0,0,0,0,0,0,0,0,0,0,0,0,0,0,0,0,0,0,0,0,0,0,0,0,0,0,0,0,0,0,0,0,0,0,0,0,0,0,0,0,0,0,0,0,0,0,0,0,0,0,0,0,0,0,0,0,0,0,0,0,0,0,0,0,0,0,0,0,0,0,0,0,0,0,0,0,0,0,0,0,0,0,0,0,0,0,0,0,0,0,0,0,0,0,0],"sum_hessian":[1.0860455E4,2.494127E3,8.366327E3,1.7808248E3,7.133021E2,1.681862E3,6.684466E3,1.6027805E3,1.7804433E2,2.173501E2,4.9595206E2,5.4352246E2,1.1383395E3,2.2785737E3,4.4058916E3,1.3348406E1,1.5894321E3,1.7601562E2,2.0287054E0,1.9307602E2,2.427407E1,2.013278E2,2.9462424E2,2.29338E2,3.1418445E2,4.9742175E2,6.409178E2,5.68689E2,1.7098848E3,1.3948883E3,3.0110034E3,1.0788709E1,2.5596974E0,9.3603485E1,8.241214E1,1.0026864E0,1.026019E0,2.5070553E0,1.9056897E2,2.0507513E1,3.7665586E0,7.6564884E0,1.9367131E2,2.8480215E2,9.822097E0,2.4717024E1,2.0462097E2,2.5199692E2,6.2187546E1,4.920447E2,5.3770704E0,1.4452692E2,4.9639084E2,3.375234E2,2.311656E2,1.1424371E3,5.6744763E2,1.1394867E3,2.554016E2,6.558935E1,2.945414E3,8.844987E0,1.9437213E0,1.1746217E0,1.3850757E0,9.2554924E1,1.0485604E0,6.115777E1,2.125437E1,1.0807215E0,1.4263337E0,1.3398039E1,1.7717093E2,8.994605E0,1.1512907E1,1.6708848E0,2.0956738E0,4.9972715E0,2.659217E0,4.2742863E1,1.5092845E2,1.7111096E2,1.1369118E2,1.565911E0,8.256186E0,1.9449352E1,5.267671E0,1.3043277E2,7.418822E1,9.046269E0,2.4295065E2,4.820645E1,1.3981096E1,9.405965E0,4.8263873E2,2.6014514E0,2.775619E0,9.9619194E1,4.4907722E1,1.4985655E2,3.465343E2,2.6654453E2,7.097888E1,9.97266E1,1.3143901E2,1.0494913E3,9.294579E1,3.152208E2,2.5222684E2,3.0130386E1,1.1093563E3,1.3955562E2,1.1584598E2,2.7196451E1,3.83929E1,2.4861711E3,4.5924304E2],"tree_param":{"num_deleted":"0","num_feature":"13","num_nodes":"117","size_leaf_vector":"1"}},{"base_weights":[-1.13357335E-1,-9.052931E-1,4.288068E-2,-1.0180447E0,-5.654355E-1,-2.506769E-1,9.010545E-2,-1.0201411E0,6.158505E-2,-6.470494E-1,-3.2570437E-1,-4.2653129E-1,-1.5929249E-1,-2.0561104E-1,1.05784535E-1,-1.0366153E0,-8.577013E-1,-7.810011E-1,-4.8075545E-1,7.7876323E-1,-3.618978E-1,-5.436715E-1,-1.9341435E-1,-5.0511926E-1,-1.13899246E-1,-2.306509E-1,5.4377884E-1,4.0575627E-2,1.583044E-1,-5.700398E-1,-3.1219143E-1,-9.432032E-1,-5.73971E-1,-8.106191E-1,-1.5014012E-2,2.6027156E-2,-5.70555E-1,-1.651755E-1,4.5100474E-1,-8.593181E-1,-3.104354E-1,-5.85244E-1,-8.2035944E-2,-4.190066E-1,-3.2970276E-2,-6.2721604E-1,2.613652E-1,3.6385605E-1,-1.3241112E-1,-2.5476477E-1,5.357211E-1,3.851298E-2,5.3139085E-1,2.0528479E-1,1.1030833E-2,2.056203E-1,9.762374E-2,-2.091999E-1,9.407882E-2,4.335263E-2,-2.8893134E-1,-1.9998574E-1,7.976704E-2,-2.4771573E-1,-1.0410871E-1,1.17636465E-1,-1.5857984E-1,2.8007632E-1,-7.389787E-2,-1.8788752E-1,-3.3501197E-2,-2.81827E-1,-8.03166E-2,-2.3822318E-1,-7.5253166E-2,5.220038E-2,-1.8054073E-1,-8.737378E-2,2.4584155E-1,6.639986E-2,-1.5422858E-1,-2.630967E-2,3.932169E-1,-2.0542303E-1,4.0623426E-2,2.8866655E-1,-2.2413887E-1,1.9063689E-1,-8.656472E-2,-5.919717E-2,-8.802571E-3,1.9893938E-1,-8.2471594E-2,-2.6524669E-2,5.6447905E-1,-2.5288603E-1,1.8016136E-1,6.618627E-2,-3.306083E-1,-5.6943066E-2,1.0152625E-2,1.8737169E-1,5.9233386E-2,-5.5431083E-2,3.5830624E-2],"categories":[],"categories_nodes":[],"categories_segments":[],"categories_sizes":[],"default_left":[0,0,0,0,0,0,0,0,0,0,0,0,0,0,0,0,0,0,0,0,0,0,0,0,0,0,0,0,0,0,0,0,0,0,0,0,0,0,0,0,0,0,0,0,0,0,0,0,0,0,0,0,0,0,0,0,0,0,0,0,0,0,0,0,0,0,0,0,0,0,0,0,0,0,0,0,0,0,0,0,0,0,0,0,0,0,0,0,0,0,0,0,0,0,0,0,0,0,0,0,0,0,0,0,0],"id":5,"left_children":[1,3,5,7,9,11,13,15,-1,17,19,21,23,25,27,29,31,33,35,37,39,41,43,45,47,49,51,53,55,57,-1,59,61,63,65,67,69,-1,-1,71,73,75,77,79,81,83,85,87,89,91,93,95,-1,97,99,101,103,-1,-1,-1,-1,-1,-1,-1,-1,-1,-1,-1,-1,-1,-1,-1,-1,-1,-1,-1,-1,-1,-1,-1,-1,-1,-1,-1,-1,-1,-1,-1,-1,-1,-1,-1,-1,-1,-1,-1,-1,-1,-1,-1,-1,-1,-1,-1,-1],"loss_changes":[1.2798193E3,6.4735596E1,1.197992E2,3.4886475E0,8.140503E0,1.9177277E1,3.453327E1,2.5269775E0,0E0,6.695099E0,4.695819E0,1.106134E1,1.2338415E1,7.164399E0,2.420398E1,1.5732422E0,2.450676E0,3.94001E0,6.5778656E0,4.50814E0,2.487608E0,5.164505E0,4.9923577E0,8.71117E0,6.2329836E0,6.8575993E0,7.639132E0,1.535085E1,1.1221191E1,1.57721E0,0E0,2.1570969E0,2.598342E0,8.873749E-1,1.7763455E0,5.8319793E0,3.0644913E0,0E0,0E0,1.9977856E-1,2.6562881E0,3.235199E0,4.6900873E0,3.6087837E0,6.1386285E0,3.5619183E0,1.0087903E1,4.8528786E0,4.5033293E0,6.713274E0,9.756583E0,5.3737874E0,0E0,9.862604E0,1.2267222E1,7.4086456E0,1.0599525E1,0E0,0E0,0E0,0E0,0E0,0E0,0E0,0E0,0E0,0E0,0E0,0E0,0E0,0E0,0E0,0E0,0E0,0E0,0E0,0E0,0E0,0E0,0E0,0E0,0E0,0E0,0E0,0E0,0E0,0E0,0E0,0E0,0E0,0E0,0E0,0E0,0E0,0E0,0E0,0E0,0E0,0E0,0E0,0E0,0E0,0E0,0E0,0E0],"parents":[2147483647,0,0,1,1,2,2,3,3,4,4,5,5,6,6,7,7,9,9,10,10,11,11,12,12,13,13,14,14,15,15,16,16,17,17,18,18,19,19,20,20,21,21,22,22,23,23,24,24,25,25,26,26,27,27,28,28,29,29,31,31,32,32,33,33,34,34,35,35,36,36,39,39,40,40,41,41,42,42,43,43,44,44,45,45,46,46,47,47,48,48,49,49,50,50,51,51,53,53,54,54,55,55,56,56],"right_children":[2,4,6,8,10,12,14,16,-1,18,20,22,24,26,28,30,32,34,36,38,40,42,44,46,48,50,52,54,56,58,-1,60,62,64,66,68,70,-1,-1,72,74,76,78,80,82,84,86,88,90,92,94,96,-1,98,100,102,104,-1,-1,-1,-1,-1,-1,-1,-1,-1,-1,-1,-1,-1,-1,-1,-1,-1,-1,-1,-1,-1,-1,-1,-1,-1,-1,-1,-1,-1,-1,-1,-1,-1,-1,-1,-1,-1,-1,-1,-1,-1,-1,-1,-1,-1,-1,-1,-1],"split_conditions":[3.9180206E1,3.89863E3,8.38021E1,5.245E1,1.272E1,7.68052E3,1.1152256E7,1.72908E3,6.158505E-2,7.789138E3,4.01254E3,1.7203294E7,6.2451315E6,4.135907E4,2.789298E4,3.779E1,6.8133096E-3,8.185947E-3,8.596097E3,4.186188E-3,-3.8420707E-3,2.968E1,5.147775E3,3.230161E-3,8.05057E3,1.2378378E-2,1.3322675E-3,-1.4982772E-2,1.1571913E-3,1.1335234E-2,-3.1219143E-1,-3.128086E-2,3.6745833E3,9.2624435E-3,3.52E0,-3.508391E-3,2.5941693E4,-1.651755E-1,4.5100474E-1,2.035617E7,1.2311001E-3,6.36E2,7.234641E1,-4.389217E-2,2.6229983E-2,2.987565E4,5.6393E2,2.32831E3,1.9155809E4,3.779E1,1.3401315E2,9.214833E6,5.3139085E-1,2.9262906E4,7.14504E3,2.7771086E4,4.8881E2,-2.091999E-1,9.407882E-2,4.335263E-2,-2.8893134E-1,-1.9998574E-1,7.976704E-2,-2.4771573E-1,-1.0410871E-1,1.17636465E-1,-1.5857984E-1,2.8007632E-1,-7.389787E-2,-1.8788752E-1,-3.3501197E-2,-2.81827E-1,-8.03166E-2,-2.3822318E-1,-7.5253166E-2,5.220038E-2,-1.8054073E-1,-8.737378E-2,2.4584155E-1,6.639986E-2,-1.5422858E-1,-2.630967E-2,3.932169E-1,-2.0542303E-1,4.0623426E-2,2.8866655E-1,-2.2413887E-1,1.9063689E-1,-8.656472E-2,-5.919717E-2,-8.802571E-3,1.9893938E-1,-8.2471594E-2,-2.6524669E-2,5.6447905E-1,-2.5288603E-1,1.8016136E-1,6.618627E-2,-3.306083E-1,-5.6943066E-2,1.0152625E-2,1.8737169E-1,5.9233386E-2,-5.5431083E-2,3.5830624E-2],"split_indices":[7,3,7,6,6,8,5,0,0,9,3,5,5,9,0,4,12,11,9,11,12,6,9,11,1,11,11,11,11,10,0,12,8,12,6,10,8,0,0,5,10,0,7,12,10,1,4,4,8,4,7,5,0,9,2,9,4,0,0,0,0,0,0,0,0,0,0,0,0,0,0,0,0,0,0,0,0,0,0,0,0,0,0,0,0,0,0,0,0,0,0,0,0,0,0,0,0,0,0,0,0,0,0,0,0],"split_type":[0,0,0,0,0,0,0,0,0,0,0,0,0,0,0,0,0,0,0,0,0,0,0,0,0,0,0,0,0,0,0,0,0,0,0,0,0,0,0,0,0,0,0,0,0,0,0,0,0,0,0,0,0,0,0,0,0,0,0,0,0,0,0,0,0,0,0,0,0,0,0,0,0,0,0,0,0,0,0,0,0,0,0,0,0,0,0,0,0,0,0,0,0,0,0,0,0,0,0,0,0,0,0,0,0],"sum_hessian":[1.0342294E4,1.7033906E3,8.638902E3,1.2775529E3,4.2583783E2,1.1965607E3,7.4423423E3,1.275533E3,2.0198166E0,3.1641772E2,1.09420105E2,4.0791922E2,7.886414E2,3.7411954E2,7.0682227E3,1.1531978E3,1.2233519E2,1.732037E2,1.4321404E2,2.8209257E0,1.0659918E2,2.7060785E2,1.373114E2,9.033093E1,6.983105E2,3.6269284E2,1.1426682E1,3.153988E3,3.9142346E3,1.1077874E1,1.1421199E3,9.222036E1,3.011483E1,1.6669974E2,6.503963E0,2.1663952E1,1.2155008E2,1.0798807E0,1.741045E0,8.522754E0,9.807642E1,2.4800595E2,2.2601885E1,5.6399452E1,8.091194E1,7.807561E1,1.2255325E1,2.5352663E1,6.729578E2,3.5227606E2,1.0416788E1,8.825399E0,2.6012828E0,4.7879688E2,2.6751912E3,2.1979714E3,1.7162632E3,9.8672695E0,1.2106043E0,1.5444828E0,9.067588E1,2.7308592E1,2.806237E0,1.6068483E2,6.0149117E0,3.7598846E0,2.7440782E0,4.440168E0,1.7223785E1,1.08060135E2,1.3489942E1,6.9885235E0,1.5342301E0,9.406714E0,8.866971E1,5.0903993E0,2.4291554E2,1.8894123E1,3.7077627E0,7.12062E0,4.927883E1,7.8643524E1,2.2684174E0,7.269419E1,5.3814178E0,7.2575507E0,4.997774E0,1.7918896E1,7.433767E0,4.1234772E2,2.6061014E2,6.8782253E0,3.4539783E2,7.754856E0,2.6619322E0,3.2415614E0,5.583838E0,4.7406683E2,4.730039E0,2.7210745E2,2.4030837E3,4.062843E1,2.157343E3,1.22521065E2,1.5937421E3],"tree_param":{"num_deleted":"0","num_feature":"13","num_nodes":"105","size_leaf_vector":"1"}},{"base_weights":[-8.93607E-2,-9.461299E-1,1.65115E-2,-1.0206676E0,-6.5119153E-1,-2.3431621E-1,6.2429372E-2,-5.1166856E-1,-1.0249054E0,-7.113378E-1,-2.2803424E-1,-4.033833E-1,-1.3956057E-1,-6.1285533E-2,8.3704755E-2,-6.8516594E-1,1.3504454E-1,-3.0781317E-1,-3.909997E-1,-8.140705E-1,-4.9393052E-1,2.659921E-1,-3.7967938E-1,-5.0669605E-1,-1.7237906E-1,-4.1067666E-1,-9.852127E-2,-3.029905E-1,-2.108741E-2,1.6103384E-1,5.7085026E-2,-2.5756465E-2,-7.6609135E-1,-1.6640349E-1,-5.898863E-3,-8.392666E-1,1.5544349E-1,1.847455E-1,-5.3829086E-1,-2.1589361E-1,7.840437E-1,-5.468121E-1,-1.3341449E-1,-7.3718625E-1,-4.145419E-1,-2.3022084E-1,2.6053977E-1,-5.138418E-1,1.7955126E-1,-1.3205637E-1,1.4284937E-1,5.1395726E-1,-3.3351326E-1,1.8465239E0,-2.8400877E-2,4.897361E-1,1.4245155E-1,1.478013E-2,1.1912484E-1,-2.6304892E-1,-2.8290156E-2,-2.6093057E-1,-6.051597E-2,2.8324607E-1,-1.9766991E-1,-2.0007555E-1,-5.5220082E-2,-7.7683315E-2,3.826513E-1,-1.9864777E-1,1.167805E-1,1.8008879E-1,-1.3535656E-1,4.6486314E-2,-2.3987515E-1,1.6846432E-1,-1.321602E-1,-3.230477E-2,-1.4411715E-1,-9.26132E-3,2.719495E-1,-7.2796163E-3,-1.8663675E-1,2.4107142E-1,-9.902087E-2,-5.848525E-2,-9.620819E-3,-4.991271E-2,1.322258E-1,-1.4887063E-1,3.7771544E-1,-1.20825745E-1,-6.9811116E-3,9.53774E-2,7.1817183E-1,1.0057918E-2,-3.4959048E-2,4.3801197E-1,1.2110505E-1,3.5949126E-2,8.5012875E-2,2.9054368E-2,-7.518287E-3,1.0116893E-1,2.9779576E-2],"categories":[],"categories_nodes":[],"categories_segments":[],"categories_sizes":[],"default_left":[0,0,0,0,0,0,0,0,0,0,0,0,0,0,0,0,0,0,0,0,0,0,0,0,0,0,0,0,0,0,0,0,0,0,0,0,0,0,0,0,0,0,0,0,0,0,0,0,0,0,0,0,0,0,0,0,0,0,0,0,0,0,0,0,0,0,0,0,0,0,0,0,0,0,0,0,0,0,0,0,0,0,0,0,0,0,0,0,0,0,0,0,0,0,0,0,0,0,0,0,0,0,0,0,0],"id":6,"left_children":[1,3,5,7,9,11,13,15,17,19,21,23,25,27,29,31,-1,-1,33,35,37,39,41,43,45,47,49,51,53,55,57,-1,59,-1,-1,61,63,-1,65,-1,67,69,71,73,75,77,79,81,83,85,87,89,91,93,95,97,99,101,103,-1,-1,-1,-1,-1,-1,-1,-1,-1,-1,-1,-1,-1,-1,-1,-1,-1,-1,-1,-1,-1,-1,-1,-1,-1,-1,-1,-1,-1,-1,-1,-1,-1,-1,-1,-1,-1,-1,-1,-1,-1,-1,-1,-1,-1,-1],"loss_changes":[9.016233E2,2.3368042E1,1.019152E2,1.354126E0,5.5211105E0,2.187922E1,1.9691057E1,1.8416319E0,2.2143555E-1,3.9541016E0,2.293152E0,1.1636848E1,9.739603E0,1.0662388E1,1.3128372E1,3.3096766E-1,0E0,0E0,1.8130338E-1,3.3282928E0,3.5378218E0,4.3736334E0,8.6550474E-1,6.8935013E0,3.899413E0,7.1097317E0,6.209039E0,4.073887E0,1.2926472E1,9.909718E0,1.2463299E1,0E0,4.440837E-1,0E0,0E0,2.3088226E0,3.2937725E0,0E0,2.7550583E0,0E0,3.0822499E0,1.6894894E0,2.7284977E0,5.4413033E0,6.4481926E0,4.110856E0,3.5180287E0,5.1990604E0,5.953794E0,4.21957E0,8.711369E0,5.163643E0,3.2444038E0,2.3278894E0,5.133285E0,6.6758366E0,4.9002934E0,9.2390375E0,8.306356E0,0E0,0E0,0E0,0E0,0E0,0E0,0E0,0E0,0E0,0E0,0E0,0E0,0E0,0E0,0E0,0E0,0E0,0E0,0E0,0E0,0E0,0E0,0E0,0E0,0E0,0E0,0E0,0E0,0E0,0E0,0E0,0E0,0E0,0E0,0E0,0E0,0E0,0E0,0E0,0E0,0E0,0E0,0E0,0E0,0E0,0E0],"parents":[2147483647,0,0,1,1,2,2,3,3,4,4,5,5,6,6,7,7,8,8,9,9,10,10,11,11,12,12,13,13,14,14,15,15,18,18,19,19,20,20,21,21,22,22,23,23,24,24,25,25,26,26,27,27,28,28,29,29,30,30,32,32,35,35,36,36,38,38,40,40,41,41,42,42,43,43,44,44,45,45,46,46,47,47,48,48,49,49,50,50,51,51,52,52,53,53,54,54,55,55,56,56,57,57,58,58],"right_children":[2,4,6,8,10,12,14,16,18,20,22,24,26,28,30,32,-1,-1,34,36,38,40,42,44,46,48,50,52,54,56,58,-1,60,-1,-1,62,64,-1,66,-1,68,70,72,74,76,78,80,82,84,86,88,90,92,94,96,98,100,102,104,-1,-1,-1,-1,-1,-1,-1,-1,-1,-1,-1,-1,-1,-1,-1,-1,-1,-1,-1,-1,-1,-1,-1,-1,-1,-1,-1,-1,-1,-1,-1,-1,-1,-1,-1,-1,-1,-1,-1,-1,-1,-1,-1,-1,-1,-1],"split_conditions":[2.701869E1,2.6887957E3,8.38021E1,3.779E1,2.9332514E-3,7.68052E3,9.93065E3,8.772944E-3,7.7947974E-2,7.31715E3,3.4347211E-3,1.7203294E7,6.2451315E6,1.1728461E7,-5.904204E-3,1.9528416E0,1.3504454E-1,-3.0781317E-1,1.527063E1,8.185947E-3,-5.757768E-3,8.3381106E-4,2.45758E3,3.66076E3,2.5117038E-2,3.230161E-3,6.552648E-3,6.129766E2,1.29476E3,6.9731E2,4.9948564E7,-2.5756465E-2,9.700913E-3,-1.6640349E-1,-5.898863E-3,1.6622045E7,7.5282E6,1.847455E-1,1.2156643E-3,-2.1589361E-1,2.0177956E1,9.057468E-3,5.5480087E-3,3.779E1,3.719258E3,6.13352E3,6.30241E3,-1.867E1,4.8881E2,1.9155809E4,9.62018E3,5.6901E2,2.266E1,9.62018E3,1.5464092E-3,2.2615578E4,6.987297E-4,-2.0581442E-3,1.624684E4,-2.6304892E-1,-2.8290156E-2,-2.6093057E-1,-6.051597E-2,2.8324607E-1,-1.9766991E-1,-2.0007555E-1,-5.5220082E-2,-7.7683315E-2,3.826513E-1,-1.9864777E-1,1.167805E-1,1.8008879E-1,-1.3535656E-1,4.6486314E-2,-2.3987515E-1,1.6846432E-1,-1.321602E-1,-3.230477E-2,-1.4411715E-1,-9.26132E-3,2.719495E-1,-7.2796163E-3,-1.8663675E-1,2.4107142E-1,-9.902087E-2,-5.848525E-2,-9.620819E-3,-4.991271E-2,1.322258E-1,-1.4887063E-1,3.7771544E-1,-1.20825745E-1,-6.9811116E-3,9.53774E-2,7.1817183E-1,1.0057918E-2,-3.4959048E-2,4.3801197E-1,1.2110505E-1,3.5949126E-2,8.5012875E-2,2.9054368E-2,-7.518287E-3,1.0116893E-1,2.9779576E-2],"split_indices":[7,9,7,4,10,8,8,10,12,0,10,5,5,5,11,7,0,0,7,11,11,12,4,2,11,11,11,9,4,4,5,0,12,0,0,5,5,0,11,0,7,11,11,4,9,4,9,6,4,8,0,1,6,0,10,9,12,12,0,0,0,0,0,0,0,0,0,0,0,0,0,0,0,0,0,0,0,0,0,0,0,0,0,0,0,0,0,0,0,0,0,0,0,0,0,0,0,0,0,0,0,0,0,0,0],"split_type":[0,0,0,0,0,0,0,0,0,0,0,0,0,0,0,0,0,0,0,0,0,0,0,0,0,0,0,0,0,0,0,0,0,0,0,0,0,0,0,0,0,0,0,0,0,0,0,0,0,0,0,0,0,0,0,0,0,0,0,0,0,0,0,0,0,0,0,0,0,0,0,0,0,0,0,0,0,0,0,0,0,0,0,0,0,0,0,0,0,0,0,0,0,0,0,0,0,0,0,0,0,0,0,0,0],"sum_hessian":[9.938666E3,1.0921908E3,8.846475E3,8.698893E2,2.2230151E2,1.3682526E3,7.478222E3,8.187877E0,8.617014E2,1.940402E2,2.8261307E1,4.9025732E2,8.7799524E2,1.0970531E3,6.381169E3,7.1802936E0,1.0075834E0,8.59539E2,2.1623926E0,1.2990907E2,6.4131134E1,6.4604726E0,2.1800835E1,3.379303E2,1.5232703E2,1.1424652E2,7.637487E2,1.5550267E2,9.415504E2,1.6328287E3,4.7483403E3,1.0993948E0,6.080899E0,1.1581622E0,1.0042305E0,1.2674941E2,3.1596608E0,1.9698505E0,6.2161285E1,2.091699E0,4.3687735E0,1.2259948E1,9.540888E0,9.4520935E1,2.4340938E2,1.3478656E2,1.7540464E1,9.7358734E1,1.6887787E1,6.7097845E2,9.277027E1,5.0301924E0,1.5047247E2,2.6917286E0,9.3885864E2,8.601166E1,1.5468171E3,2.8239377E3,1.9244026E3,4.9583497E0,1.1225492E0,1.2061463E2,6.134781E0,1.5241153E0,1.6355456E0,4.495444E1,1.7206842E1,1.5507823E0,2.8179913E0,1.117549E1,1.0844573E0,2.6147072E0,6.9261804E0,6.0818067E0,8.8439125E1,5.7791343E0,2.3763023E2,9.143181E1,4.3354763E1,1.2743643E1,4.7968225E0,1.7854794E1,7.9503944E1,7.3324957E0,9.55529E0,4.1130618E2,2.5967224E2,4.5736782E1,4.703349E1,2.2770214E0,2.753171E0,1.22773926E2,2.7698553E1,1.1265568E0,1.5651718E0,5.5176227E2,3.870964E2,5.7059746E0,8.030568E1,1.3344606E3,2.1235648E2,9.2242474E2,1.9015131E3,1.5926944E2,1.7651332E3],"tree_param":{"num_deleted":"0","num_feature":"13","num_nodes":"105","size_leaf_vector":"1"}},{"base_weights":[-6.961236E-2,-9.1094035E-1,1.0749561E-2,-1.0078171E0,-5.693899E-1,-1.9088195E-1,4.1928805E-2,-4.4096053E-1,-1.0134808E0,-7.0259535E-1,-3.5409132E-1,-4.5879743E-1,-1.460412E-1,-8.893909E-4,8.4550895E-2,-7.089007E-1,2.4161714E-1,-1.0149829E0,-9.363268E-2,-2.912889E-1,-7.725511E-1,-5.2646714E-1,-6.7750745E-2,-6.1842304E-1,-2.6954627E-1,-2.9333192E-1,-9.182281E-2,8.43632E-2,-4.13453E-2,7.5767055E-2,3.541173E-1,-2.2298025E-2,-2.5055486E-1,2.7062127E-1,-1.638426E-1,-3.0538782E-1,-5.9899974E-1,3.5534346E-1,-6.455331E-1,-2.2080797E-1,-8.0790466E-1,3.8347584E-1,-6.0408723E-1,2.894515E-1,-4.4325885E-1,-7.033781E-1,-2.3182303E-1,1.5146448E-1,-3.7841693E-1,-4.9802393E-1,-1.8040122E-1,-9.7199954E-2,1.0358706E0,3.719344E-2,5.9269345E-1,-6.939257E-1,-3.4774687E-2,1.1235347E-1,3.2508858E-2,4.0609643E-1,-8.758129E-1,-2.5327232E-1,5.4254904E-2,-1.139487E-1,2.1744736E-1,-2.3431712E-1,1.01765044E-1,2.4427946E-1,-2.0527078E-1,-2.4773146E-1,2.8883489E-2,2.573101E-1,-1.6292146E-1,-2.3287497E-1,-8.818414E-2,-1.608269E-1,2.1778175E-1,3.1111592E-2,-2.4970163E-1,-2.542377E-1,-1.4657547E-1,6.843415E-2,-1.9660749E-1,-1.3309531E-1,1.8080842E-1,2.666547E-2,-1.6237186E-1,2.956741E-1,-1.6173661E-1,4.0532565E-1,-6.4783834E-2,2.126825E-1,-3.1249147E-2,4.4214237E-1,4.343687E-2,1.2507509E-1,5.9842854E-3,-7.469178E-2,2.1071252E-1,-2.702274E-1,-7.0083197E-3,-3.3726197E-2,3.0822093E-3,3.199694E-2,2.0010212E-1,3.8097646E-2,-4.6295584E-3,3.028205E-1,8.745498E-2,-3.673025E-1,-6.1462924E-2],"categories":[],"categories_nodes":[],"categories_segments":[],"categories_sizes":[],"default_left":[0,0,0,0,0,0,0,0,0,0,0,0,0,0,0,0,0,0,0,0,0,0,0,0,0,0,0,0,0,0,0,0,0,0,0,0,0,0,0,0,0,0,0,0,0,0,0,0,0,0,0,0,0,0,0,0,0,0,0,0,0,0,0,0,0,0,0,0,0,0,0,0,0,0,0,0,0,0,0,0,0,0,0,0,0,0,0,0,0,0,0,0,0,0,0,0,0,0,0,0,0,0,0,0,0,0,0,0,0,0,0],"id":7,"left_children":[1,3,5,7,9,11,13,15,17,19,21,23,25,27,29,31,33,35,-1,37,39,41,43,45,47,49,51,53,55,57,59,-1,-1,-1,-1,-1,61,63,65,67,69,71,73,75,77,79,81,83,85,87,89,91,93,95,97,99,101,103,105,107,109,-1,-1,-1,-1,-1,-1,-1,-1,-1,-1,-1,-1,-1,-1,-1,-1,-1,-1,-1,-1,-1,-1,-1,-1,-1,-1,-1,-1,-1,-1,-1,-1,-1,-1,-1,-1,-1,-1,-1,-1,-1,-1,-1,-1,-1,-1,-1,-1,-1,-1],"loss_changes":[6.511286E2,2.7209778E1,5.5279064E1,1.6490479E0,5.138237E0,1.4080299E1,1.3897654E1,1.6761892E0,3.6340332E-1,3.0846672E0,3.6075583E0,4.9196777E0,8.0407295E0,1.31089E1,9.009518E0,4.3181014E-1,2.0874786E0,1.8737793E-1,0E0,4.42712E0,1.7273788E0,3.4754906E0,4.0026684E0,2.8113098E0,3.6695967E0,6.1829605E0,4.5871577E0,2.9307468E1,1.102828E1,5.847679E0,8.03745E0,0E0,0E0,0E0,0E0,0E0,1.4920962E0,2.21231E0,1.8923898E0,4.0393724E0,1.5567474E0,2.3206706E0,2.052084E0,5.941304E0,3.1671116E0,1.8684692E0,3.6183143E0,4.8073564E0,4.8342123E0,6.3795757E0,9.896935E0,4.2128515E0,1.1902912E0,7.3287477E0,9.757141E0,3.5353088E0,8.931058E0,6.2569103E0,7.6819525E0,7.722292E0,9.6255636E-1,0E0,0E0,0E0,0E0,0E0,0E0,0E0,0E0,0E0,0E0,0E0,0E0,0E0,0E0,0E0,0E0,0E0,0E0,0E0,0E0,0E0,0E0,0E0,0E0,0E0,0E0,0E0,0E0,0E0,0E0,0E0,0E0,0E0,0E0,0E0,0E0,0E0,0E0,0E0,0E0,0E0,0E0,0E0,0E0,0E0,0E0,0E0,0E0,0E0,0E0],"parents":[2147483647,0,0,1,1,2,2,3,3,4,4,5,5,6,6,7,7,8,8,9,9,10,10,11,11,12,12,13,13,14,14,15,15,16,16,17,17,19,19,20,20,21,21,22,22,23,23,24,24,25,25,26,26,27,27,28,28,29,29,30,30,36,36,37,37,38,38,39,39,40,40,41,41,42,42,43,43,44,44,45,45,46,46,47,47,48,48,49,49,50,50,51,51,52,52,53,53,54,54,55,55,56,56,57,57,58,58,59,59,60,60],"right_children":[2,4,6,8,10,12,14,16,18,20,22,24,26,28,30,32,34,36,-1,38,40,42,44,46,48,50,52,54,56,58,60,-1,-1,-1,-1,-1,62,64,66,68,70,72,74,76,78,80,82,84,86,88,90,92,94,96,98,100,102,104,106,108,110,-1,-1,-1,-1,-1,-1,-1,-1,-1,-1,-1,-1,-1,-1,-1,-1,-1,-1,-1,-1,-1,-1,-1,-1,-1,-1,-1,-1,-1,-1,-1,-1,-1,-1,-1,-1,-1,-1,-1,-1,-1,-1,-1,-1,-1,-1,-1,-1,-1,-1],"split_conditions":[2.701869E1,2.6887957E3,7.94269E1,2.126329E4,1.2156643E-3,4.4259995E3,2.952681E4,5.9318E2,5.5589538E-2,-1.697E1,6.572147E3,5.0842613E1,8.67916E6,-3.728E1,1.4992321E-2,4.4949E2,1.1037384E-3,1.0747927E7,-9.363268E-2,1.10434E3,2.7041E2,3.4433699E3,2.2582516E1,1.6339127E7,-1.926206E-2,8.541817E3,3.4528483E-2,9.829145E-3,-3.552E1,9.208458E-4,1.374861E4,-2.2298025E-2,-2.5055486E-1,2.7062127E-1,-1.638426E-1,-3.0538782E-1,2.2582516E1,4.526437E6,9.467192E3,-7.055223E-4,7.491769E-3,1.417E1,4.945079E-3,1.5389842E-3,7.6466E2,3.43983E3,3.62658E3,5.903429E1,2.35801E3,-2.079313E-2,8.61973E3,-2.0254638E-2,6.728524E7,1.2405554E7,7.498698E3,8.054738E-3,2.219773E7,7.6836266E-4,3.934195E4,-5.92434E-3,3.9814234E4,-2.5327232E-1,5.4254904E-2,-1.139487E-1,2.1744736E-1,-2.3431712E-1,1.01765044E-1,2.4427946E-1,-2.0527078E-1,-2.4773146E-1,2.8883489E-2,2.573101E-1,-1.6292146E-1,-2.3287497E-1,-8.818414E-2,-1.608269E-1,2.1778175E-1,3.1111592E-2,-2.4970163E-1,-2.542377E-1,-1.4657547E-1,6.843415E-2,-1.9660749E-1,-1.3309531E-1,1.8080842E-1,2.666547E-2,-1.6237186E-1,2.956741E-1,-1.6173661E-1,4.0532565E-1,-6.4783834E-2,2.126825E-1,-3.1249147E-2,4.4214237E-1,4.343687E-2,1.2507509E-1,5.9842854E-3,-7.469178E-2,2.1071252E-1,-2.702274E-1,-7.0083197E-3,-3.3726197E-2,3.0822093E-3,3.199694E-2,2.0010212E-1,3.8097646E-2,-4.6295584E-3,3.028205E-1,8.745498E-2,-3.673025E-1,-6.1462924E-2],"split_indices":[7,9,7,5,11,9,1,2,11,6,9,7,5,6,10,1,11,5,0,4,4,9,7,5,12,8,11,11,6,12,4,0,0,0,0,0,7,5,9,11,12,6,11,12,4,1,1,7,4,12,2,10,5,5,9,12,5,12,3,12,8,0,0,0,0,0,0,0,0,0,0,0,0,0,0,0,0,0,0,0,0,0,0,0,0,0,0,0,0,0,0,0,0,0,0,0,0,0,0,0,0,0,0,0,0,0,0,0,0,0,0],"split_type":[0,0,0,0,0,0,0,0,0,0,0,0,0,0,0,0,0,0,0,0,0,0,0,0,0,0,0,0,0,0,0,0,0,0,0,0,0,0,0,0,0,0,0,0,0,0,0,0,0,0,0,0,0,0,0,0,0,0,0,0,0,0,0,0,0,0,0,0,0,0,0,0,0,0,0,0,0,0,0,0,0,0,0,0,0,0,0,0,0,0,0,0,0,0,0,0,0,0,0,0,0,0,0,0,0,0,0,0,0,0,0],"sum_hessian":[9.629404E3,8.3868427E2,8.79072E3,6.518454E2,1.8683891E2,1.1766136E3,7.6141064E3,7.2284794E0,6.446169E2,1.1402695E2,7.2811966E1,1.6737088E2,1.00924274E3,3.7988035E3,3.815303E3,5.1631594E0,2.0653195E0,6.427931E2,1.8238295E0,1.7325455E1,9.670149E1,4.4927307E1,2.7884657E1,8.956159E1,7.780929E1,2.7036197E2,7.3888074E2,1.2221937E3,2.5766099E3,3.696145E3,1.1915805E2,1.1206106E0,4.042549E0,1.044503E0,1.0208167E0,6.367896E2,6.0034304E0,6.1309676E0,1.1194487E1,6.2594447E0,9.044205E1,3.2214706E0,4.1705837E1,1.440811E1,1.3476547E1,7.275447E1,1.6807123E1,1.590649E1,6.1902794E1,9.491473E1,1.7544725E2,7.3628375E2,2.5969958E0,1.1193944E3,1.02799385E2,2.4641626E1,2.5519683E3,2.0016312E3,1.6945138E3,1.1496907E2,4.188982E0,4.5043626E0,1.4990681E0,2.0412993E0,4.0896688E0,1.0022069E1,1.1724176E0,1.7016776E0,4.5577674E0,8.877456E1,1.6674876E0,2.1800067E0,1.0414639E0,2.5852108E1,1.5853729E1,4.904294E0,9.503816E0,5.9065895E0,7.5699577E0,4.1782066E1,3.0972403E1,8.278507E0,8.528616E0,6.8668213E0,9.039669E0,1.611287E1,4.5789925E1,1.9389532E0,9.297577E1,3.1401484E0,1.723071E2,5.44259E0,7.308412E2,1.3027711E0,1.2942246E0,4.7623848E1,1.0717705E3,1.1705405E1,9.109398E1,1.8570396E1,6.071229E0,9.364343E2,1.6155338E3,1.982461E3,1.9170153E1,5.698278E2,1.124686E3,1.7103453E1,9.7865616E1,2.2140388E0,1.9749433E0],"tree_param":{"num_deleted":"0","num_feature":"13","num_nodes":"111","size_leaf_vector":"1"}},{"base_weights":[-5.392242E-2,-8.9003485E-1,5.719901E-3,-9.872957E-1,-4.754429E-1,-2.0004277E-1,2.46816E-2,-3.6189848E-1,-9.94381E-1,-5.416408E-1,4.738325E-3,-4.0906307E-1,-1.4078023E-1,-2.759763E-1,3.092104E-2,-5.606101E-1,1.2872465E-1,-1.001892E0,-4.5962673E-1,2.0180902E-1,-5.639117E-1,8.1695175E-1,-2.3223521E-1,-4.5334175E-1,4.7743458E-1,-1.9447857E-1,1.5899906E-1,-3.5118753E-1,2.0988724E-1,5.8795667E-1,2.8433505E-2,-2.3090148E-1,-1.706288E-1,-3.0116057E-1,-4.8421044E-2,1.4836226E-1,-7.482913E-1,3.3930475E-1,-5.9654284E-1,-3.5583787E-2,3.9049682E-1,-5.882177E-1,3.5359296E-1,7.861679E-3,-5.141967E-1,6.0999477E-1,-9.4930276E-2,3.4480885E-1,-2.2168499E-1,-1.626482E-2,6.432842E-1,9.438004E-2,-4.1312853E-1,5.62226E-1,-3.803143E-2,3.8490704E-1,5.400644E-1,-5.8329877E-2,4.2425547E-2,1.390709E-1,-1.8642429E-1,-2.593196E-1,-6.0772942E-3,-1.8823597E-1,3.2625994E-1,-2.3465751E-1,-1.2493052E-1,1.3653482E-3,-2.2761676E-1,-1.4187236E-1,3.296506E-1,4.2568035E-2,-2.2644874E-1,-4.7220953E-2,-1.7726895E-1,-1.6425455E-1,1.06143214E-1,6.5860124E-3,3.089177E-1,2.5864676E-1,-6.96562E-2,2.021163E-1,-6.524232E-2,1.2637784E-1,8.002859E-1,1.6142023E-1,-1.8311575E-1,-2.0803992E-1,-7.256939E-2,-1.3298026E-1,1.4782864E-1,2.0525219E-1,-9.8380305E-2,-1.21166185E-1,-1.4093295E-2,3.382916E-2,9.7297225E-3],"categories":[],"categories_nodes":[],"categories_segments":[],"categories_sizes":[],"default_left":[0,0,0,0,0,0,0,0,0,0,0,0,0,0,0,0,0,0,0,0,0,0,0,0,0,0,0,0,0,0,0,0,0,0,0,0,0,0,0,0,0,0,0,0,0,0,0,0,0,0,0,0,0,0,0,0,0,0,0,0,0,0,0,0,0,0,0,0,0,0,0,0,0,0,0,0,0,0,0,0,0,0,0,0,0,0,0,0,0,0,0,0,0,0,0,0,0],"id":8,"left_children":[1,3,5,7,9,11,13,15,17,19,21,23,25,27,29,31,-1,33,35,-1,37,39,41,43,45,47,49,51,53,55,57,-1,59,-1,-1,-1,61,63,65,-1,-1,67,69,71,73,-1,75,77,79,81,83,85,87,-1,89,91,-1,93,95,-1,-1,-1,-1,-1,-1,-1,-1,-1,-1,-1,-1,-1,-1,-1,-1,-1,-1,-1,-1,-1,-1,-1,-1,-1,-1,-1,-1,-1,-1,-1,-1,-1,-1,-1,-1,-1,-1],"loss_changes":[4.6851016E2,2.4755157E1,3.422365E1,1.8812866E0,3.8422756E0,9.110525E0,1.5074696E1,1.3781815E0,1.5458374E0,3.250599E0,3.197413E0,6.6134167E0,9.338063E0,6.0440884E0,1.0886782E1,3.756441E-1,0E0,6.549072E-1,2.784658E0,0E0,3.2911873E0,1.8552854E0,2.8931508E0,4.374798E0,7.530772E0,7.2772827E0,7.5121384E0,3.9540367E0,9.365627E0,7.9057446E0,9.51409E0,0E0,1.2757957E0,0E0,0E0,0E0,5.8504295E-1,3.7867405E0,3.0683937E0,0E0,0E0,8.5086775E-1,3.901967E0,2.0634606E0,3.6722908E0,0E0,1.611138E0,5.276042E0,5.5253487E0,9.29157E0,9.443192E0,5.9967685E0,5.8194847E0,0E0,4.6464906E0,6.8787775E0,0E0,4.2509356E0,4.739152E0,0E0,0E0,0E0,0E0,0E0,0E0,0E0,0E0,0E0,0E0,0E0,0E0,0E0,0E0,0E0,0E0,0E0,0E0,0E0,0E0,0E0,0E0,0E0,0E0,0E0,0E0,0E0,0E0,0E0,0E0,0E0,0E0,0E0,0E0,0E0,0E0,0E0,0E0],"parents":[2147483647,0,0,1,1,2,2,3,3,4,4,5,5,6,6,7,7,8,8,9,9,10,10,11,11,12,12,13,13,14,14,15,15,17,17,18,18,20,20,21,21,22,22,23,23,24,24,25,25,26,26,27,27,28,28,29,29,30,30,32,32,36,36,37,37,38,38,41,41,42,42,43,43,44,44,46,46,47,47,48,48,49,49,50,50,51,51,52,52,54,54,55,55,57,57,58,58],"right_children":[2,4,6,8,10,12,14,16,18,20,22,24,26,28,30,32,-1,34,36,-1,38,40,42,44,46,48,50,52,54,56,58,-1,60,-1,-1,-1,62,64,66,-1,-1,68,70,72,74,-1,76,78,80,82,84,86,88,-1,90,92,-1,94,96,-1,-1,-1,-1,-1,-1,-1,-1,-1,-1,-1,-1,-1,-1,-1,-1,-1,-1,-1,-1,-1,-1,-1,-1,-1,-1,-1,-1,-1,-1,-1,-1,-1,-1,-1,-1,-1,-1],"split_conditions":[2.5063597E1,3.66076E3,1.0337581E7,3.779E1,3.2139577E-3,6.75871E3,4.2852695E3,8.772944E-3,1.0538659E7,3.8030737E3,2.077E1,3.239E1,3.5547912E-3,4.3505028E7,4.45932E3,4.5775514E-4,1.2872465E-1,5.5589538E-2,1.1535494E7,2.0180902E-1,-5.552421E-3,1.645E1,7.26719E3,4.422962E4,6.007376E-3,-5.405E1,9.5836E2,-3.7450153E-2,2.54338E3,5.3300244E3,1.0381414E2,-2.3090148E-1,-4E-2,-3.0116057E-1,-4.8421044E-2,1.4836226E-1,2.2582516E1,-6.6440008E-3,6.540805E3,-3.5583787E-2,3.9049682E-1,2.1909021E-3,1.31755E3,4.4296872E-2,-1.247E1,6.0999477E-1,1.6006192E-2,9.571688E6,6.87322E3,-9.0768014E-4,1.850764E-2,-8.19E0,-2.6007378E-3,5.62226E-1,1.2898611E2,4.31803E3,5.400644E-1,-1.1771962E-2,-1.4382567E-2,1.390709E-1,-1.8642429E-1,-2.593196E-1,-6.0772942E-3,-1.8823597E-1,3.2625994E-1,-2.3465751E-1,-1.2493052E-1,1.3653482E-3,-2.2761676E-1,-1.4187236E-1,3.296506E-1,4.2568035E-2,-2.2644874E-1,-4.7220953E-2,-1.7726895E-1,-1.6425455E-1,1.06143214E-1,6.5860124E-3,3.089177E-1,2.5864676E-1,-6.96562E-2,2.021163E-1,-6.524232E-2,1.2637784E-1,8.002859E-1,1.6142023E-1,-1.8311575E-1,-2.0803992E-1,-7.256939E-2,-1.3298026E-1,1.4782864E-1,2.0525219E-1,-9.8380305E-2,-1.21166185E-1,-1.4093295E-2,3.382916E-2,9.7297225E-3],"split_indices":[7,2,5,4,10,1,9,10,5,8,6,6,11,5,2,11,0,11,5,0,10,6,1,5,10,6,4,12,0,9,7,0,6,0,0,0,7,10,9,0,0,12,4,11,6,0,12,5,1,12,12,6,11,0,7,3,0,10,11,0,0,0,0,0,0,0,0,0,0,0,0,0,0,0,0,0,0,0,0,0,0,0,0,0,0,0,0,0,0,0,0,0,0,0,0,0,0],"split_type":[0,0,0,0,0,0,0,0,0,0,0,0,0,0,0,0,0,0,0,0,0,0,0,0,0,0,0,0,0,0,0,0,0,0,0,0,0,0,0,0,0,0,0,0,0,0,0,0,0,0,0,0,0,0,0,0,0,0,0,0,0,0,0,0,0,0,0,0,0,0,0,0,0,0,0,0,0,0,0,0,0,0,0,0,0,0,0,0,0,0,0,0,0,0,0,0,0],"sum_hessian":[9.393963E3,6.245542E2,8.769409E3,5.0475925E2,1.1979492E2,7.3913574E2,8.0302734E3,6.237913E0,4.9852133E2,1.0516838E2,1.462654E1,1.619681E2,5.7716766E2,1.6238223E2,7.867891E3,5.2182274E0,1.019686E0,4.9075482E2,7.766506E0,1.3680682E0,1.0380031E2,2.7508202E0,1.187572E1,1.5472836E2,7.2397375E0,4.897855E2,8.738219E1,1.4085516E2,2.1527065E1,3.3932808E1,7.833958E3,2.7632766E0,2.4549508E0,4.894095E2,1.3453501E0,1.6382252E0,6.128281E0,3.2916145E0,1.005087E2,1.1965525E0,1.5542678E0,7.3844376E0,4.4912825E0,1.8137777E1,1.3659058E2,1.2605779E0,5.97916E0,2.296178E1,4.668237E2,6.4871475E1,2.2510715E1,1.7127335E1,1.2372783E2,1.9406719E0,1.9586393E1,3.019307E1,3.7397385E0,1.0874722E3,6.746486E3,1.0081918E0,1.446759E0,5.1238236E0,1.0044571E0,1.5065162E0,1.7850983E0,4.7846878E1,5.2661816E1,1.867005E0,5.5174327E0,2.3028116E0,2.1884708E0,1.6119047E1,2.0187304E0,2.4707584E1,1.11882996E2,2.8672423E0,3.1119173E0,1.6307037E1,6.654743E0,3.7018373E0,4.6312186E2,1.4116154E1,5.075532E1,2.1374504E1,1.1362121E0,1.0655601E1,6.471733E0,4.5759956E1,7.796788E1,1.1200348E1,8.386045E0,2.1293705E1,8.8993635E0,3.3489426E1,1.0539828E3,8.3797546E2,5.9085107E3],"tree_param":{"num_deleted":"0","num_feature":"13","num_nodes":"97","size_leaf_vector":"1"}},{"base_weights":[-4.124208E-2,-8.4833944E-1,3.6171384E-3,-9.841066E-1,-4.3006268E-1,-1.9313121E-1,1.624809E-2,-3.0553833E-1,-9.940154E-1,-6.652932E-1,-2.6640624E-1,-6.673612E-1,-1.5842395E-1,-1.0104617E-2,5.0857104E-2,-5.9845185E-1,2.5360295E-1,-9.9934846E-1,-4.0761706E-1,-2.361778E-1,-8.2614183E-1,-2.7344367E-1,-1.7131963E-1,-7.1044755E-1,1.07417084E-1,-6.789206E-1,-1.308753E-1,8.677908E-2,-3.0196002E-2,2.9079306E-1,4.3597866E-2,-2.2374476E-1,-1.0714027E-2,-1.4627328E-2,1.2903914E-1,-3.0062264E-1,-4.4246353E-2,-2.2692071E-1,1.4309093E-1,5.457887E-1,-4.6490312E-1,2.3860928E-1,-2.7062738E-1,-7.765497E-2,-6.56432E-1,-2.863002E-1,-7.8464127E-1,1.22305565E-1,-7.467657E-1,-3.0912438E-1,-5.588293E-2,4.241557E-2,4.3658203E-1,-2.5903228E-1,-2.3427693E-2,3.6069065E-1,-2.8337327E-1,-7.2635067E-1,4.5510344E-2,-1.6922846E-1,3.8857737E-1,-2.1574655E-1,8.685876E-2,2.8316292E-1,-1.6627336E-1,-9.438462E-2,5.384556E-2,1.3460933E-1,-2.4845065E-1,6.86846E-2,-1.7455715E-1,-1.5530235E-2,-2.4298768E-1,-2.6548025E-1,-4.2343788E-2,-4.891355E-2,-1.7345314E-1,-8.6125955E-3,-1.7903127E-1,5.2850097E-3,1.4664002E-1,3.4224316E-2,2.1939205E-1,-1.18492156E-1,5.4330792E-2,1.3076761E-2,-1.2825098E-2,8.1555106E-2,3.1744623E-1,-1.462669E-1,1.4833061E-1,4.155371E-2,-2.8937346E-1,1.6083669E-2,-3.1337943E-2],"categories":[],"categories_nodes":[],"categories_segments":[],"categories_sizes":[],"default_left":[0,0,0,0,0,0,0,0,0,0,0,0,0,0,0,0,0,0,0,0,0,0,0,0,0,0,0,0,0,0,0,0,0,0,0,0,0,0,0,0,0,0,0,0,0,0,0,0,0,0,0,0,0,0,0,0,0,0,0,0,0,0,0,0,0,0,0,0,0,0,0,0,0,0,0,0,0,0,0,0,0,0,0,0,0,0,0,0,0,0,0,0,0,0,0],"id":9,"left_children":[1,3,5,7,9,11,13,15,17,19,21,23,25,27,29,31,33,35,37,39,41,-1,43,45,-1,47,49,51,53,55,57,-1,-1,-1,-1,-1,-1,-1,-1,59,61,63,-1,65,67,69,71,-1,73,75,77,79,81,83,85,87,89,91,93,-1,-1,-1,-1,-1,-1,-1,-1,-1,-1,-1,-1,-1,-1,-1,-1,-1,-1,-1,-1,-1,-1,-1,-1,-1,-1,-1,-1,-1,-1,-1,-1,-1,-1,-1,-1],"loss_changes":[3.3382343E2,2.7146423E1,2.171216E1,2.155487E0,4.4709854E0,8.569262E0,7.487961E0,1.25035E0,7.185669E-1,3.1780624E0,4.3136373E0,1.8286486E0,6.9720488E0,9.076428E0,6.168824E0,3.6307192E-1,1.815388E-1,6.7944336E-1,1.8829715E0,2.8872955E0,3.0574207E0,0E0,2.890745E0,8.6198616E-1,0E0,2.1116428E0,6.250839E0,1.2410446E1,5.974946E0,4.277851E0,5.1072807E0,0E0,0E0,0E0,0E0,0E0,0E0,0E0,0E0,3.8851066E0,2.4970148E0,2.2738569E0,0E0,3.432011E0,2.3346276E0,1.1558721E0,4.9271584E-1,0E0,1.8353739E0,5.354645E0,4.852023E0,7.871758E0,8.47434E0,6.703078E0,4.8602133E0,5.4868965E0,2.1232877E0,1.9049244E0,4.1833577E0,0E0,0E0,0E0,0E0,0E0,0E0,0E0,0E0,0E0,0E0,0E0,0E0,0E0,0E0,0E0,0E0,0E0,0E0,0E0,0E0,0E0,0E0,0E0,0E0,0E0,0E0,0E0,0E0,0E0,0E0,0E0,0E0,0E0,0E0,0E0,0E0],"parents":[2147483647,0,0,1,1,2,2,3,3,4,4,5,5,6,6,7,7,8,8,9,9,10,10,11,11,12,12,13,13,14,14,15,15,16,16,17,17,18,18,19,19,20,20,22,22,23,23,25,25,26,26,27,27,28,28,29,29,30,30,39,39,40,40,41,41,43,43,44,44,45,45,46,46,48,48,49,49,50,50,51,51,52,52,53,53,54,54,55,55,56,56,57,57,58,58],"right_children":[2,4,6,8,10,12,14,16,18,20,22,24,26,28,30,32,34,36,38,40,42,-1,44,46,-1,48,50,52,54,56,58,-1,-1,-1,-1,-1,-1,-1,-1,60,62,64,-1,66,68,70,72,-1,74,76,78,80,82,84,86,88,90,92,94,-1,-1,-1,-1,-1,-1,-1,-1,-1,-1,-1,-1,-1,-1,-1,-1,-1,-1,-1,-1,-1,-1,-1,-1,-1,-1,-1,-1,-1,-1,-1,-1,-1,-1,-1,-1],"split_conditions":[2.5063597E1,2.7535942E3,5.4310444E1,2.126329E4,-2.1539124E-4,2.6887957E3,3.063858E4,5.9318E2,2.2582516E1,-1.315E1,9.731074E0,3.0224414E7,3.8740898E6,-5.87173E-3,3.196237E4,7.491769E-3,-6.5525106E-5,7.7947974E-2,8.881194E6,1.527063E1,2.7041E2,-2.7344367E-1,2.3538666E1,-1.697E1,1.07417084E-1,-2.362E1,-2.0314716E-3,2.570785E4,6.2451315E6,2.2487419E-2,3.199931E4,-2.2374476E-1,-1.0714027E-2,-1.4627328E-2,1.2903914E-1,-3.0062264E-1,-4.4246353E-2,-2.2692071E-1,1.4309093E-1,6.4102393E3,2.3538666E1,2.0177956E1,-2.7062738E-1,7.35897E6,4.2276E2,-3.128086E-2,2.126329E4,1.22305565E-1,1.4629746E-3,-6.4319617E-4,5.303773E1,-6.226278E-3,-9.840822E-3,2.9865624E-3,-4.388938E-3,1.0654811E-2,3.221868E4,-2.0254638E-2,2.1306256E-2,-1.6922846E-1,3.8857737E-1,-2.1574655E-1,8.685876E-2,2.8316292E-1,-1.6627336E-1,-9.438462E-2,5.384556E-2,1.3460933E-1,-2.4845065E-1,6.86846E-2,-1.7455715E-1,-1.5530235E-2,-2.4298768E-1,-2.6548025E-1,-4.2343788E-2,-4.891355E-2,-1.7345314E-1,-8.6125955E-3,-1.7903127E-1,5.2850097E-3,1.4664002E-1,3.4224316E-2,2.1939205E-1,-1.18492156E-1,5.4330792E-2,1.3076761E-2,-1.2825098E-2,8.1555106E-2,3.1744623E-1,-1.462669E-1,1.4833061E-1,4.155371E-2,-2.8937346E-1,1.6083669E-2,-3.1337943E-2],"split_indices":[7,8,7,5,11,9,9,2,7,6,7,5,5,10,0,12,10,12,5,7,4,0,7,6,0,6,11,1,5,11,3,0,0,0,0,0,0,0,0,9,7,7,0,5,4,12,5,0,10,10,7,10,11,11,11,11,1,10,11,0,0,0,0,0,0,0,0,0,0,0,0,0,0,0,0,0,0,0,0,0,0,0,0,0,0,0,0,0,0,0,0,0,0,0,0],"split_type":[0,0,0,0,0,0,0,0,0,0,0,0,0,0,0,0,0,0,0,0,0,0,0,0,0,0,0,0,0,0,0,0,0,0,0,0,0,0,0,0,0,0,0,0,0,0,0,0,0,0,0,0,0,0,0,0,0,0,0,0,0,0,0,0,0,0,0,0,0,0,0,0,0,0,0,0,0,0,0,0,0,0,0,0,0,0,0,0,0,0,0,0,0,0,0],"sum_hessian":[9.21909E3,4.844821E2,8.734607E3,3.6473965E2,1.1974243E2,5.2605914E2,8.208548E3,5.7076592E0,3.5903198E2,4.7870655E1,7.187177E1,3.4631817E1,4.9142734E2,4.6605356E3,3.5480125E3,3.6993835E0,2.0082757E0,3.550983E2,3.9336739E0,1.3724488E1,3.4146168E1,8.130211E0,6.3741566E1,3.35301E1,1.1017159E0,2.351408E1,4.6791327E2,7.999133E2,3.8606223E3,1.0304547E2,3.444967E3,2.6738505E0,1.0255328E0,1.0070943E0,1.0011816E0,3.537894E2,1.3089018E0,2.9252005E0,1.0084734E0,2.7922206E0,1.0932267E1,2.1309032E0,3.2015266E1,5.4398476E1,9.343089E0,5.715397E0,2.7814705E1,1.0875064E0,2.2426573E1,1.3763858E2,3.302747E2,7.10878E2,8.903534E1,1.0983496E2,3.7507874E3,9.2193825E1,1.0851647E1,7.597211E0,3.4373699E3,1.2251884E0,1.5670321E0,8.211621E0,2.7206469E0,1.0269346E0,1.1039686E0,2.819377E1,2.6204706E1,1.0397266E0,8.303363E0,2.1655414E0,3.5498555E0,1.0304604E0,2.6784245E1,1.7885012E1,4.541561E0,9.024632E1,4.7392258E1,3.154781E2,1.4796582E1,6.744485E2,3.6429497E1,4.317663E1,4.5858715E1,8.399469E1,2.5840277E1,8.391385E2,2.911649E3,8.301008E1,9.183746E0,8.890868E0,1.96078E0,1.7311176E0,5.8660936E0,3.2617993E3,1.7557065E2],"tree_param":{"num_deleted":"0","num_feature":"13","num_nodes":"95","size_leaf_vector":"1"}},{"base_weights":[-3.1637315E-2,-9.011793E-1,-9.200401E-4,-9.5903486E-1,-2.3933448E-1,-1.9759528E-1,1.0445814E-2,-2.2233313E-1,-9.714082E-1,4.4478014E-1,-3.6640236E-1,-3.9215976E-1,-9.906869E-2,-7.2646655E-2,2.1677513E-2,1.2762651E-1,-4.4014907E-1,-2.9641083E-1,-4.0822864E-1,3.7366927E-1,-4.9548337E-1,-5.8079994E-1,-2.2550476E-1,1.5019872E0,-1.1459085E-1,-1.0596708E-1,1.2930202E-1,1.7974842E-2,2.3035704E-1,5.4967284E-2,-2.2645645E-1,-6.411528E-1,1.095543E-1,1.2682888E-1,-5.860878E-1,-6.147136E-1,2.781911E-1,3.6532623E-1,-3.3633175E-1,5.5583066E-1,1.2475033E-1,-5.050934E-1,-7.407471E-2,2.7444743E-2,-1.6335043E-1,-4.36251E-2,3.8759363E-1,2.0132547E-2,-2.631232E-1,5.9158117E-1,1.1456816E-1,-2.523399E-1,-2.6055774E-2,-1.0930942E-1,-2.5077564E-1,-1.9070746E-1,1.3041471E-1,-5.357441E-2,4.471528E-1,-1.8190052E-1,-5.5198796E-2,-8.71404E-2,-2.58497E-1,-3.0141497E-2,1.3416699E-1,4.9607974E-2,-4.7958095E-2,-8.167829E-2,-7.7897212E-3,3.761442E-1,-3.7731685E-2,-7.8758076E-2,1.8736549E-1,1.0030287E-1,5.4906043E-3,-1.848283E-1,3.649314E-2,3.4165997E-2,5.2154225E-1,6.537519E-2,-1.2014224E-1],"categories":[],"categories_nodes":[],"categories_segments":[],"categories_sizes":[],"default_left":[0,0,0,0,0,0,0,0,0,0,0,0,0,0,0,0,0,0,0,0,0,0,0,0,0,0,0,0,0,0,0,0,0,0,0,0,0,0,0,0,0,0,0,0,0,0,0,0,0,0,0,0,0,0,0,0,0,0,0,0,0,0,0,0,0,0,0,0,0,0,0,0,0,0,0,0,0,0,0,0,0],"id":10,"left_children":[1,3,5,7,9,11,13,15,17,-1,19,21,23,25,27,-1,29,-1,31,-1,33,35,37,39,41,43,45,47,49,-1,-1,51,-1,-1,53,55,-1,57,59,-1,-1,61,63,65,67,69,71,73,75,77,79,-1,-1,-1,-1,-1,-1,-1,-1,-1,-1,-1,-1,-1,-1,-1,-1,-1,-1,-1,-1,-1,-1,-1,-1,-1,-1,-1,-1,-1,-1],"loss_changes":[2.4262965E2,1.1638733E1,1.9617428E1,2.3791504E0,6.286485E0,9.152092E0,7.744446E0,1.0337237E0,2.2158813E0,0E0,5.8703146E0,4.9253483E0,8.115118E0,6.6629114E0,5.643593E0,0E0,1.115523E0,0E0,1.9861138E0,0E0,2.2520123E0,4.3960514E0,5.8215075E0,4.2581844E-1,4.9855566E0,6.5021286E0,6.287853E0,4.361984E0,5.2585936E0,0E0,0E0,7.956922E-1,0E0,0E0,9.332237E-1,1.9002285E0,0E0,8.972136E0,2.9240446E0,0E0,0E0,2.0203643E0,4.0190606E0,6.642655E0,8.875045E0,9.216462E0,8.852963E0,4.094415E0,7.51576E0,1.6605907E1,5.2864337E0,0E0,0E0,0E0,0E0,0E0,0E0,0E0,0E0,0E0,0E0,0E0,0E0,0E0,0E0,0E0,0E0,0E0,0E0,0E0,0E0,0E0,0E0,0E0,0E0,0E0,0E0,0E0,0E0,0E0,0E0],"parents":[2147483647,0,0,1,1,2,2,3,3,4,4,5,5,6,6,7,7,8,8,10,10,11,11,12,12,13,13,14,14,16,16,18,18,20,20,21,21,22,22,23,23,24,24,25,25,26,26,27,27,28,28,31,31,34,34,35,35,37,37,38,38,41,41,42,42,43,43,44,44,45,45,46,46,47,47,48,48,49,49,50,50],"right_children":[2,4,6,8,10,12,14,16,18,-1,20,22,24,26,28,-1,30,-1,32,-1,34,36,38,40,42,44,46,48,50,-1,-1,52,-1,-1,54,56,-1,58,60,-1,-1,62,64,66,68,70,72,74,76,78,80,-1,-1,-1,-1,-1,-1,-1,-1,-1,-1,-1,-1,-1,-1,-1,-1,-1,-1,-1,-1,-1,-1,-1,-1,-1,-1,-1,-1,-1,-1],"split_conditions":[1.7500546E1,4.17357E3,4.9590664E1,2.126329E4,5.22345E3,6.67E3,8.5855E3,-5.904204E-3,7.35897E6,4.4478014E-1,-4.077923E-3,1.0689409E-3,6.4942456E3,2.6801683E-2,1.107485E4,1.2762651E-1,-1.4E-1,-2.9641083E-1,1.527063E1,3.7366927E-1,2.579654E6,3.843E1,3.2625208E-3,4.2089196E-3,4.198607E6,-9.558354E-3,6.6628364E3,9.451E3,1.214177E4,5.4967284E-2,-2.2645645E-1,3.8118953E3,1.095543E-1,1.2682888E-1,4.8612338E-4,6.8868994E3,2.781911E-1,2.71858E-3,8.523017E6,5.5583066E-1,1.2475033E-1,3.62928E1,3.91242E3,-2.716E1,3.230161E-3,-1.1571912E-2,-1.9202693E-3,8.61973E3,1.539662E4,1.6237753E-2,2.6229983E-2,-2.523399E-1,-2.6055774E-2,-1.0930942E-1,-2.5077564E-1,-1.9070746E-1,1.3041471E-1,-5.357441E-2,4.471528E-1,-1.8190052E-1,-5.5198796E-2,-8.71404E-2,-2.58497E-1,-3.0141497E-2,1.3416699E-1,4.9607974E-2,-4.7958095E-2,-8.167829E-2,-7.7897212E-3,3.761442E-1,-3.7731685E-2,-7.8758076E-2,1.8736549E-1,1.0030287E-1,5.4906043E-3,-1.848283E-1,3.649314E-2,3.4165997E-2,5.2154225E-1,6.537519E-2,-1.2014224E-1],"split_indices":[7,2,7,5,1,3,1,11,5,0,10,12,9,12,4,0,6,0,7,0,5,6,12,12,5,11,8,4,4,0,0,9,0,0,10,9,0,12,5,0,0,7,4,6,11,11,10,2,3,10,10,0,0,0,0,0,0,0,0,0,0,0,0,0,0,0,0,0,0,0,0,0,0,0,0,0,0,0,0,0,0],"split_type":[0,0,0,0,0,0,0,0,0,0,0,0,0,0,0,0,0,0,0,0,0,0,0,0,0,0,0,0,0,0,0,0,0,0,0,0,0,0,0,0,0,0,0,0,0,0,0,0,0,0,0,0,0,0,0,0,0,0,0,0,0,0,0,0,0,0,0,0,0,0,0,0,0,0,0,0,0,0,0,0,0],"sum_hessian":[9.082895E3,3.089458E2,8.773949E3,2.836972E2,2.5248575E1,4.7844965E2,8.295499E3,4.9994826E0,2.7869772E2,1.0020268E0,2.424655E1,1.5983559E2,3.1861407E2,9.871398E2,7.3083594E3,1.018243E0,3.9812398E0,2.699724E2,8.725329E0,1.1563649E0,2.3090185E1,7.380695E1,8.602864E1,2.1397772E0,3.164743E2,8.477422E2,1.3939755E2,7.1820127E3,1.2634671E2,1.4757822E0,2.5054576E0,6.837205E0,1.8881242E0,1.7444756E0,2.1345709E1,7.276308E1,1.0438768E0,1.3225527E1,7.2803116E1,1.0839111E0,1.0558661E0,2.867101E1,2.8780328E2,2.5512292E2,5.9261926E2,8.3994225E1,5.5403328E1,7.128225E3,5.378776E1,2.9671623E1,9.667509E1,4.6442027E0,2.193002E0,1.261152E1,8.734189E0,7.172358E1,1.0394915E0,9.482852E0,3.7426744E0,2.5184786E1,4.761833E1,1.9030594E1,9.640416E0,2.7470056E2,1.3102734E1,1.4700119E2,1.0812174E2,3.300183E2,2.6260095E2,4.15213E0,7.9842094E1,1.4770612E1,4.0632717E1,4.023512E1,7.0879897E3,2.7739422E1,2.604834E1,2.1723026E1,7.948598E0,8.099867E1,1.5676415E1],"tree_param":{"num_deleted":"0","num_feature":"13","num_nodes":"81","size_leaf_vector":"1"}},{"base_weights":[-2.400675E-2,-8.8737667E-1,-1.2295006E-3,-1.21144466E-1,-2.980464E-1,-2.985562E-1,3.7505715E-3,-3.9216697E-1,2.369422E-1,3.707423E-1,-3.978796E-1,-8.2808964E-2,1.3099684E-2,-5.714672E-1,2.5099277E-1,4.9364936E-1,-2.2542113E-1,4.351766E-2,1.9143718E0,-4.3623087E-1,5.2181655E-1,8.34621E-3,-1.83543E-1,2.9775286E-1,1.0356007E-2,4.631275E-1,-7.715546E-1,-2.6626456E-1,9.4932884E-1,6.3908046E-1,-3.570261E-1,8.2690775E-1,8.083425E-2,-5.208381E-1,-9.437418E-2,-2.0745693E-1,1.2147161E0,-1.4609744E-1,1.6263866E-1,-4.5768785E-1,-1.0294987E-1,8.1102276E-1,1.3033533E-1,2.458262E-1,8.056274E-3,-4.9162496E-2,2.6719013E-1,-2.6348254E-1,-5.51523E-2,6.857399E-2,-2.1735448E-1,9.3307406E-2,4.828535E-1,5.100904E-1,1.0792164E-2,1.206753E-1,-1.65579E-1,2.536769E-1,-1.6332172E-1,3.3971873E-1,-7.795348E-2,6.3847226E-1,-7.433027E-2,4.637083E-2,-7.011659E-2,3.226186E-2,2.0070314E-1,3.2639157E-2,-1.6881132E-1,1.2569107E-1,-4.5647107E-2,4.8249075E-1,6.748102E-2,1.6423763E-1,-5.8202043E-2,1.2577459E-1,-5.4074824E-2,-1.04003295E-1,2.8406768E-3],"categories":[],"categories_nodes":[],"categories_segments":[],"categories_sizes":[],"default_left":[0,0,0,0,0,0,0,0,0,0,0,0,0,0,0,0,0,0,0,0,0,0,0,0,0,0,0,0,0,0,0,0,0,0,0,0,0,0,0,0,0,0,0,0,0,0,0,0,0,0,0,0,0,0,0,0,0,0,0,0,0,0,0,0,0,0,0,0,0,0,0,0,0,0,0,0,0,0,0],"id":11,"left_children":[1,3,5,7,-1,9,11,13,15,17,19,21,23,25,-1,27,-1,29,31,33,35,37,39,41,43,45,47,49,51,53,55,-1,-1,57,59,-1,61,63,65,67,69,71,73,75,77,-1,-1,-1,-1,-1,-1,-1,-1,-1,-1,-1,-1,-1,-1,-1,-1,-1,-1,-1,-1,-1,-1,-1,-1,-1,-1,-1,-1,-1,-1,-1,-1,-1,-1],"loss_changes":[1.7666994E2,1.8654724E1,1.2963282E1,2.9294598E0,0E0,9.734985E0,6.96942E0,4.226507E0,3.7237256E0,9.591872E0,4.674242E0,7.710293E0,6.0670466E0,3.5537162E0,0E0,4.0942497E0,0E0,4.2423477E0,3.8651915E0,3.4669666E0,5.4655914E0,1.0548442E1,8.765059E0,6.2671757E0,4.167242E0,9.841829E-1,6.735811E-1,1.2857137E0,2.514124E0,4.4989853E0,1.8058465E0,0E0,0E0,3.5913887E0,5.4379444E0,0E0,5.690731E0,5.8651786E0,6.1056623E0,5.4346104E0,8.012957E0,8.07219E0,7.8332095E0,5.5754905E0,3.8246286E0,0E0,0E0,0E0,0E0,0E0,0E0,0E0,0E0,0E0,0E0,0E0,0E0,0E0,0E0,0E0,0E0,0E0,0E0,0E0,0E0,0E0,0E0,0E0,0E0,0E0,0E0,0E0,0E0,0E0,0E0,0E0,0E0,0E0,0E0],"parents":[2147483647,0,0,1,1,2,2,3,3,5,5,6,6,7,7,8,8,9,9,10,10,11,11,12,12,13,13,15,15,17,17,18,18,19,19,20,20,21,21,22,22,23,23,24,24,25,25,26,26,27,27,28,28,29,29,30,30,33,33,34,34,36,36,37,37,38,38,39,39,40,40,41,41,42,42,43,43,44,44],"right_children":[2,4,6,8,-1,10,12,14,16,18,20,22,24,26,-1,28,-1,30,32,34,36,38,40,42,44,46,48,50,52,54,56,-1,-1,58,60,-1,62,64,66,68,70,72,74,76,78,-1,-1,-1,-1,-1,-1,-1,-1,-1,-1,-1,-1,-1,-1,-1,-1,-1,-1,-1,-1,-1,-1,-1,-1,-1,-1,-1,-1,-1,-1,-1,-1,-1,-1],"split_conditions":[1.71743E3,4.422962E4,5.310425E6,4.2089196E-3,-2.980464E-1,-1.867E1,7.70993E3,1.1183695E2,6.5285E2,2.1268097E-3,2.952681E4,6.4102393E3,7.92165E3,-3.8645357E-2,2.5099277E-1,5.6745544E2,-2.2542113E-1,4.531323E1,3.8168032E-3,3.0701263E-3,3.52E0,4.4259995E3,6.596639E3,-1.6267484E-2,-6.2113546E-2,-9.15169E-3,3.3561515E-3,5.3801E2,1.2536757E-2,-3.960393E-3,3.6915912E6,8.2690775E-1,8.083425E-2,6.053851E5,3.3049015E-3,-2.0745693E-1,1.987E1,-1.926206E-2,6.6628364E3,6.22983E3,6.370715E3,3.9768E3,2.40918E3,-2.4855549E-2,2.2021E2,-4.9162496E-2,2.6719013E-1,-2.6348254E-1,-5.51523E-2,6.857399E-2,-2.1735448E-1,9.3307406E-2,4.828535E-1,5.100904E-1,1.0792164E-2,1.206753E-1,-1.65579E-1,2.536769E-1,-1.6332172E-1,3.3971873E-1,-7.795348E-2,6.3847226E-1,-7.433027E-2,4.637083E-2,-7.011659E-2,3.226186E-2,2.0070314E-1,3.2639157E-2,-1.6881132E-1,1.2569107E-1,-4.5647107E-2,4.8249075E-1,6.748102E-2,1.6423763E-1,-5.8202043E-2,1.2577459E-1,-5.4074824E-2,-1.04003295E-1,2.8406768E-3],"split_indices":[2,5,5,12,0,6,1,7,0,11,1,9,0,11,0,8,0,7,11,11,6,9,9,12,12,10,10,1,10,12,5,0,0,5,11,0,6,12,8,3,8,4,4,11,4,0,0,0,0,0,0,0,0,0,0,0,0,0,0,0,0,0,0,0,0,0,0,0,0,0,0,0,0,0,0,0,0,0,0],"split_type":[0,0,0,0,0,0,0,0,0,0,0,0,0,0,0,0,0,0,0,0,0,0,0,0,0,0,0,0,0,0,0,0,0,0,0,0,0,0,0,0,0,0,0,0,0,0,0,0,0,0,0,0,0,0,0,0,0,0,0,0,0,0,0,0,0,0,0,0,0,0,0,0,0,0,0,0,0,0,0],"sum_hessian":[8.982945E3,2.2991916E2,8.753026E3,2.8227741E1,2.0169142E2,1.4322247E2,8.609804E3,1.6012955E1,1.2214785E1,1.8154467E1,1.2506801E2,8.3851215E2,7.771292E3,1.4440788E1,1.5721676E0,1.009365E1,2.1211355E0,1.5827485E1,2.3269806E0,1.2056609E2,4.50192E0,4.4066626E2,3.978459E2,7.316331E1,7.6981284E3,2.1271708E0,1.2313617E1,3.939544E0,6.1541057E0,6.124911E0,9.702575E0,1.0922271E0,1.2347535E0,9.6227005E1,2.4339087E1,1.6371266E0,2.8647935E0,2.2025175E2,2.2041449E2,8.9323814E1,3.0852206E2,1.7049257E1,5.6114048E1,7.343283E1,7.624696E3,1.1123757E0,1.014795E0,1.0002848E1,2.3107693E0,2.1351156E0,1.8044282E0,3.8768523E0,2.2772534E0,1.5602574E0,4.5646534E0,1.7645737E0,7.938001E0,1.0401604E0,9.5186844E1,2.198242E0,2.2140844E1,1.4831415E0,1.3816521E0,4.9531128E1,1.7072064E2,1.9987784E2,2.0536657E1,1.3963777E1,7.536004E1,2.5934202E1,2.825879E2,6.484268E0,1.0564988E1,2.424527E1,3.1868776E1,5.2201614E1,2.1231216E1,2.927377E1,7.595422E3],"tree_param":{"num_deleted":"0","num_feature":"13","num_nodes":"79","size_leaf_vector":"1"}},{"base_weights":[-1.8148294E-2,-8.5232264E-1,-1.1083757E-3,-9.837989E-2,-9.863379E-1,-1.7210715E-1,4.489261E-3,6.261663E-2,-6.5259576E-1,-2.9974756E-1,-6.140399E-1,-2.533328E-1,4.819644E-2,-2.1971762E-1,6.942969E-3,-2.1714556E-1,5.270762E-1,4.1425955E-2,-2.7401045E-1,2.8383883E-3,-2.4940078E-1,-6.71411E-1,-1.9798544E-1,-2.136523E-2,8.1887484E-1,7.254498E-1,-2.7972028E-1,9.7040695E-1,5.742305E-3,-5.519963E-1,3.0612186E-1,1.1704637E0,-1.6539104E-1,1.2665908E-1,-7.435592E-1,-2.2780064E-1,4.0582192E-1,1.5042704E-1,-3.76577E-1,-7.127135E-2,1.6659254E0,4.0551633E-1,1.4052695E-1,-8.992467E-1,-2.195556E-1,1.9303838E0,2.459803E-1,4.123804E-3,3.015439E-1,-2.1052827E-1,1.02379456E-1,-1.0810671E-1,3.412764E-1,-2.289559E-2,4.639199E-1,9.097332E-2,-2.135762E-1,-2.6678538E-1,-9.011617E-2,-2.1685965E-2,-1.02949314E-1,4.0497464E-1,-1.4571685E-1,-1.5194471E-1,1.0313485E-1,-2.7987796E-1,-1.7364018E-2,2.1311764E-1,-2.1075349E-1,7.048114E-1,7.81344E-2,2.229948E-1,-9.628909E-2,-3.240711E-1,-2.8934728E-2,3.3443156E-1,-8.284681E-2,1.10918835E-1,7.057203E-1,3.6290836E-1,-1.4727047E-1,1.8364158E-3,-1.08629875E-1,2.619503E-1,4.1786503E-2],"categories":[],"categories_nodes":[],"categories_segments":[],"categories_sizes":[],"default_left":[0,0,0,0,0,0,0,0,0,0,0,0,0,0,0,0,0,0,0,0,0,0,0,0,0,0,0,0,0,0,0,0,0,0,0,0,0,0,0,0,0,0,0,0,0,0,0,0,0,0,0,0,0,0,0,0,0,0,0,0,0,0,0,0,0,0,0,0,0,0,0,0,0,0,0,0,0,0,0,0,0,0,0,0,0],"id":12,"left_children":[1,3,5,7,9,11,13,15,17,-1,19,21,23,25,27,29,31,-1,-1,-1,-1,33,35,37,39,41,43,45,47,49,51,53,55,-1,57,59,61,63,65,67,69,-1,71,73,75,77,79,81,83,-1,-1,-1,-1,-1,-1,-1,-1,-1,-1,-1,-1,-1,-1,-1,-1,-1,-1,-1,-1,-1,-1,-1,-1,-1,-1,-1,-1,-1,-1,-1,-1,-1,-1,-1,-1],"loss_changes":[1.2665982E2,1.7926346E1,8.360331E0,2.542129E0,1.0887146E-1,4.9662895E0,4.6543694E0,3.0555878E0,1.4452717E0,0E0,1.0419793E0,4.5512953E0,4.060651E0,5.3971143E0,9.673347E0,2.768204E0,4.114428E0,0E0,0E0,0E0,0E0,2.14824E0,3.3362699E0,4.3373384E0,4.8456683E0,1.9147556E0,3.0394983E0,6.763221E0,3.9999988E0,1.4973438E0,3.9741743E0,2.3142676E0,1.5258987E0,0E0,1.1647272E0,3.0672321E0,8.09481E0,6.2705164E0,4.0511208E0,2.4805188E0,2.5131884E0,0E0,1.3754679E0,9.658017E-1,6.385862E0,1.982233E0,5.6200695E0,6.083779E0,4.095357E0,0E0,0E0,0E0,0E0,0E0,0E0,0E0,0E0,0E0,0E0,0E0,0E0,0E0,0E0,0E0,0E0,0E0,0E0,0E0,0E0,0E0,0E0,0E0,0E0,0E0,0E0,0E0,0E0,0E0,0E0,0E0,0E0,0E0,0E0,0E0,0E0],"parents":[2147483647,0,0,1,1,2,2,3,3,4,4,5,5,6,6,7,7,8,8,10,10,11,11,12,12,13,13,14,14,15,15,16,16,21,21,22,22,23,23,24,24,25,25,26,26,27,27,28,28,29,29,30,30,31,31,32,32,34,34,35,35,36,36,37,37,38,38,39,39,40,40,42,42,43,43,44,44,45,45,46,46,47,47,48,48],"right_children":[2,4,6,8,10,12,14,16,18,-1,20,22,24,26,28,30,32,-1,-1,-1,-1,34,36,38,40,42,44,46,48,50,52,54,56,-1,58,60,62,64,66,68,70,-1,72,74,76,78,80,82,84,-1,-1,-1,-1,-1,-1,-1,-1,-1,-1,-1,-1,-1,-1,-1,-1,-1,-1,-1,-1,-1,-1,-1,-1,-1,-1,-1,-1,-1,-1,-1,-1,-1,-1,-1,-1],"split_conditions":[1.71743E3,4.422962E4,3.9180206E1,6.450342E2,1.18601E3,4.331439E-3,3.76921E3,6.1759375E2,-1.4232977E-2,-2.9974756E-1,7.7712975E0,3.91455E3,1.05838E4,-9.862E1,3.6196414E3,1.6293128E-3,5.9589E2,4.1425955E-2,-2.7401045E-1,2.8383883E-3,-2.4940078E-1,-2.9506076E-2,3.66794E3,3.319511E1,1.45285E3,-7.6782174E-2,-2.3069441E-2,9.387301E1,5.5589538E-2,2.8000379E-2,5.8931E2,5.6901E2,6.2845294E2,1.2665908E-1,1.509396E-3,8.0148E2,4.51742E3,-1.6005567E-4,7.872678E-3,6.8821E2,3.377E1,4.0551633E-1,3.9286846E3,1.629239E4,-1.8348623E-2,-1.4018768E-2,3.8810144E-3,4.4296872E-2,3.3877164E-2,-2.1052827E-1,1.02379456E-1,-1.0810671E-1,3.412764E-1,-2.289559E-2,4.639199E-1,9.097332E-2,-2.135762E-1,-2.6678538E-1,-9.011617E-2,-2.1685965E-2,-1.02949314E-1,4.0497464E-1,-1.4571685E-1,-1.5194471E-1,1.0313485E-1,-2.7987796E-1,-1.7364018E-2,2.1311764E-1,-2.1075349E-1,7.048114E-1,7.81344E-2,2.229948E-1,-9.628909E-2,-3.240711E-1,-2.8934728E-2,3.3443156E-1,-8.284681E-2,1.10918835E-1,7.057203E-1,3.6290836E-1,-1.4727047E-1,1.8364158E-3,-1.08629875E-1,2.619503E-1,4.1786503E-2],"split_indices":[2,5,7,8,2,12,2,8,10,0,7,1,1,6,9,10,3,0,0,0,0,12,4,7,4,12,10,7,11,12,0,1,8,0,11,4,4,10,12,4,6,0,9,4,10,12,12,11,12,0,0,0,0,0,0,0,0,0,0,0,0,0,0,0,0,0,0,0,0,0,0,0,0,0,0,0,0,0,0,0,0,0,0,0,0],"split_type":[0,0,0,0,0,0,0,0,0,0,0,0,0,0,0,0,0,0,0,0,0,0,0,0,0,0,0,0,0,0,0,0,0,0,0,0,0,0,0,0,0,0,0,0,0,0,0,0,0,0,0,0,0,0,0,0,0,0,0,0,0,0,0,0,0,0,0,0,0,0,0,0,0,0,0,0,0,0,0,0,0,0,0,0,0],"sum_hessian":[8.909823E3,1.7737881E2,8.732444E3,2.7032663E1,1.5034615E2,2.7585242E2,8.456592E3,2.1634874E1,5.3977885E0,1.4371342E2,6.6327176E0,2.0143402E2,7.441839E1,9.0588036E1,8.366004E3,1.3834369E1,7.8005056E0,1.4553933E0,3.9423952E0,1.9613502E0,4.671367E0,2.2248007E1,1.79186E2,6.914923E1,5.2691536E0,4.7455416E0,8.58425E1,9.407988E0,8.356596E3,8.40251E0,5.4318595E0,3.6857288E0,4.114777E0,1.076645E0,2.1171362E1,1.7134781E2,7.8381987E0,4.6996613E1,2.2152618E1,3.0157888E0,2.2533646E0,1.6586751E0,3.0868666E0,6.364074E0,7.9478424E1,3.3302228E0,6.077764E0,8.312129E3,4.446651E1,7.379622E0,1.0228876E0,3.3295763E0,2.102283E0,1.0385134E0,2.6472151E0,2.454904E0,1.6598731E0,1.5174871E1,5.99649E0,7.366779E1,9.768002E1,3.557201E0,4.2809978E0,1.0319063E1,3.667755E1,7.3661704E0,1.4786448E1,1.2913374E0,1.7244514E0,1.0642608E0,1.1891038E0,1.0737163E0,2.0131502E0,4.911246E0,1.4528283E0,2.4734142E0,7.7005005E1,1.1081805E0,2.2220423E0,2.355516E0,3.7222483E0,8.268014E3,4.411498E1,8.862527E0,3.5603985E1],"tree_param":{"num_deleted":"0","num_feature":"13","num_nodes":"85","size_leaf_vector":"1"}},{"base_weights":[-1.3712872E-2,-9.3275803E-1,-2.3129322E-3,1.4370343E-2,-9.575002E-1,-2.3314573E-1,2.3421387E-3,1.2820366E-1,-8.8133566E-2,-2.89875E-1,-3.3229973E-2,-6.319107E-1,-1.6236684E-1,7.396838E-1,1.5336628E-3,-7.513193E-1,1.2728459E-1,-1.9599856E-1,4.565614E-1,1.2103351E0,-1.5703082E-1,-8.367747E-3,4.8748173E-2,-8.177762E-1,2.578848E-2,-3.9177403E-1,2.58008E-1,-3.254621E-1,-2.242305E-2,1.3422627E0,-5.781935E-1,4.416822E-2,1.6725891E0,1.3316505E-1,-2.1348523E-1,-7.15857E-3,-5.8437526E-1,9.111663E-2,-6.145937E-2,-2.825262E-1,-1.19982295E-1,-3.7051642E-3,-1.6755848E-1,-1.3385092E-4,-1.483825E-1,-5.8507185E-2,7.91581E-2,1.0955862E-1,5.8769345E-1,-2.8453684E-1,7.2942644E-2,1.2077659E-1,5.871657E-1,-3.1020618E-3,5.687884E-2,1.5070678E-1,-2.3641853E-1,1.8715296E-2,7.044603E-2,-5.878223E-2,8.277506E-3],"categories":[],"categories_nodes":[],"categories_segments":[],"categories_sizes":[],"default_left":[0,0,0,0,0,0,0,0,0,0,0,0,0,0,0,0,0,0,0,0,0,0,0,0,0,0,0,0,0,0,0,0,0,0,0,0,0,0,0,0,0,0,0,0,0,0,0,0,0,0,0,0,0,0,0,0,0,0,0,0,0],"id":13,"left_children":[1,3,5,7,9,11,13,-1,-1,-1,-1,15,17,19,21,23,25,27,29,31,33,35,37,39,-1,41,-1,43,45,47,49,-1,51,-1,-1,53,55,57,59,-1,-1,-1,-1,-1,-1,-1,-1,-1,-1,-1,-1,-1,-1,-1,-1,-1,-1,-1,-1,-1,-1],"loss_changes":[9.2842354E1,2.5580444E0,9.407229E0,6.026705E-1,6.769867E-1,4.7818537E0,5.114831E0,0E0,0E0,0E0,0E0,2.4291801E0,3.1768246E0,4.1562333E0,4.008513E0,1.3160133E0,1.9927425E0,3.1696153E0,8.057008E0,2.838809E0,1.6888515E0,4.932728E0,6.9462996E0,7.027273E-1,0E0,1.9780555E-1,0E0,4.4474144E0,3.0889304E0,2.0453176E0,1.5573908E0,0E0,7.58749E-1,0E0,0E0,4.4305367E0,3.679936E0,4.4201612E0,4.9557443E0,0E0,0E0,0E0,0E0,0E0,0E0,0E0,0E0,0E0,0E0,0E0,0E0,0E0,0E0,0E0,0E0,0E0,0E0,0E0,0E0,0E0,0E0],"parents":[2147483647,0,0,1,1,2,2,3,3,4,4,5,5,6,6,11,11,12,12,13,13,14,14,15,15,16,16,17,17,18,18,19,19,20,20,21,21,22,22,23,23,25,25,27,27,28,28,29,29,30,30,32,32,35,35,36,36,37,37,38,38],"right_children":[2,4,6,8,10,12,14,-1,-1,-1,-1,16,18,20,22,24,26,28,30,32,34,36,38,40,-1,42,-1,44,46,48,50,-1,52,-1,-1,54,56,58,60,-1,-1,-1,-1,-1,-1,-1,-1,-1,-1,-1,-1,-1,-1,-1,-1,-1,-1,-1,-1,-1,-1],"split_conditions":[9.731074E0,3.779E1,3.89863E3,-3.415127E-3,6.47823E3,2.1837593E1,3.6196414E3,1.2820366E-1,-8.8133566E-2,-2.89875E-1,-3.3229973E-2,3.66076E3,4.2852695E3,4.0897E3,4.5834785E4,4.38774E-2,6.666532E-3,3.0701263E-3,1.4769676E2,-9.882943E-3,5.64751E3,4.805026E4,5.790081E4,2.7724E3,2.578848E-2,1.303856E1,2.58008E-1,2.38736E3,3.22518E3,-1.4982772E-2,2.5222305E2,4.416822E-2,6.676207E1,1.3316505E-1,-2.1348523E-1,1.2952444E3,-2.3334294E-3,3.0342E2,6.0721957E4,-2.825262E-1,-1.19982295E-1,-3.7051642E-3,-1.6755848E-1,-1.3385092E-4,-1.483825E-1,-5.8507185E-2,7.91581E-2,1.0955862E-1,5.8769345E-1,-2.8453684E-1,7.2942644E-2,1.2077659E-1,5.871657E-1,-3.1020618E-3,5.687884E-2,1.5070678E-1,-2.3641853E-1,1.8715296E-2,7.044603E-2,-5.878223E-2,8.277506E-3],"split_indices":[7,4,3,12,1,7,9,0,0,0,0,2,9,3,9,12,12,11,7,12,4,2,0,1,0,7,0,2,0,11,7,0,7,0,0,7,12,6,8,0,0,0,0,0,0,0,0,0,0,0,0,0,0,0,0,0,0,0,0,0,0],"split_type":[0,0,0,0,0,0,0,0,0,0,0,0,0,0,0,0,0,0,0,0,0,0,0,0,0,0,0,0,0,0,0,0,0,0,0,0,0,0,0,0,0,0,0,0,0,0,0,0,0,0,0,0,0,0,0,0,0,0,0,0,0],"sum_hessian":[8.860696E3,1.0757222E2,8.753124E3,2.7492824E0,1.0482294E2,1.7205948E2,8.581064E3,1.0095234E0,1.739759E0,1.03611115E2,1.2118195E0,2.4741137E1,1.4731834E2,8.397624E0,8.572667E3,2.13876E1,3.3535354E0,1.4037395E2,6.944406E0,5.2777762E0,3.119848E0,7.08722E3,1.4854464E3,1.9836432E1,1.5511688E0,2.2353754E0,1.11816E0,7.990255E1,6.047139E1,3.5815709E0,3.3628354E0,1.998971E0,3.2788055E0,1.5931871E0,1.5266609E0,7.0733843E3,1.383629E1,1.0730815E3,4.1236487E2,1.4330485E1,5.505947E0,1.0104094E0,1.2249662E0,2.769295E1,5.2209602E1,3.7925056E1,2.2546331E1,2.0019794E0,1.5795915E0,2.2112286E0,1.1516067E0,1.0423474E0,2.236458E0,6.961756E3,1.1162812E2,1.9525428E0,1.1883748E1,8.9547327E2,1.7760832E2,1.638001E2,2.4856477E2],"tree_param":{"num_deleted":"0","num_feature":"13","num_nodes":"61","size_leaf_vector":"1"}},{"base_weights":[-1.0259363E-2,-9.0932715E-1,-1.7588693E-3,1.742154E-2,-9.411035E-1,-2.2778027E-1,1.7553986E-3,1.2660621E-1,-8.629782E-2,-9.5253354E-1,-2.8335033E-2,-9.41431E-2,-7.325836E-1,-2.4969654E-1,2.3001556E-3,-9.755268E-1,-5.762886E-1,-1.3513091E-1,5.9309673E-1,-2.8091997E-1,-4.9612856E-1,-2.901706E-1,3.4184651E-3,-4.2616072E-1,-2.966205E-1,-2.5135425E-1,1.4632316E-1,-2.5987363E-1,1.3254032E-1,9.9801475E-1,-1.9550753E-1,2.0328231E-1,-6.957639E-1,-4.8179647E-1,3.330826E-1,5.836194E-2,-3.8111988E-3,-1.3792447E-3,-1.7891043E-1,-1.9177476E-2,-1.5268669E-1,8.560965E-2,-1.5506652E-1,6.667546E-2,4.2608884E-1,-1.6890275E-1,2.2096659E-1,-2.2526762E-2,-2.476119E-1,1.3474393E-1,-1.794233E-1,-1.5742857E-2,4.350807E-1,1.780536E-4,5.4620605E-2,-2.408698E-2,1.201092E-3],"categories":[],"categories_nodes":[],"categories_segments":[],"categories_sizes":[],"default_left":[0,0,0,0,0,0,0,0,0,0,0,0,0,0,0,0,0,0,0,0,0,0,0,0,0,0,0,0,0,0,0,0,0,0,0,0,0,0,0,0,0,0,0,0,0,0,0,0,0,0,0,0,0,0,0,0,0],"id":14,"left_children":[1,3,5,7,9,11,13,-1,-1,15,-1,17,19,-1,21,23,25,27,29,-1,31,33,35,37,-1,-1,-1,39,41,43,-1,45,47,49,51,53,55,-1,-1,-1,-1,-1,-1,-1,-1,-1,-1,-1,-1,-1,-1,-1,-1,-1,-1,-1,-1],"loss_changes":[6.740592E1,2.4491196E0,6.9413548E0,5.8063E-1,6.83136E-1,8.956999E0,3.912062E0,0E0,0E0,1.1878204E-1,0E0,3.0924187E0,8.7802315E-1,0E0,2.8141587E0,1.06422424E-1,2.3503616E0,3.431323E0,3.7776906E0,0E0,2.2391264E0,4.074706E0,3.4041307E0,2.4590057E-1,0E0,0E0,0E0,3.370871E0,3.4228992E0,1.3473945E0,0E0,2.0941668E0,8.9641476E-1,3.0263805E0,3.650525E0,7.1213603E0,4.526915E0,0E0,0E0,0E0,0E0,0E0,0E0,0E0,0E0,0E0,0E0,0E0,0E0,0E0,0E0,0E0,0E0,0E0,0E0,0E0,0E0],"parents":[2147483647,0,0,1,1,2,2,3,3,4,4,5,5,6,6,9,9,11,11,12,12,14,14,15,15,16,16,17,17,18,18,20,20,21,21,22,22,23,23,27,27,28,28,29,29,31,31,32,32,33,33,34,34,35,35,36,36],"right_children":[2,4,6,8,10,12,14,-1,-1,16,-1,18,20,-1,22,24,26,28,30,-1,32,34,36,38,-1,-1,-1,40,42,44,-1,46,48,50,52,54,56,-1,-1,-1,-1,-1,-1,-1,-1,-1,-1,-1,-1,-1,-1,-1,-1,-1,-1,-1,-1],"split_conditions":[9.731074E0,3.779E1,4.9919975E6,-3.8420707E-3,6.47823E3,6.3952E2,1.71743E3,1.2660621E-1,-8.629782E-2,1.1928655E3,-2.8335033E-2,2.952681E4,3.66076E3,-2.4969654E-1,2.2021E2,4.422962E4,4.0982007E-3,2.3677044E-3,1.4769676E2,-2.8091997E-1,1.932053E1,1.397309E-3,6.1118E2,4.5288E2,-2.966205E-1,-2.5135425E-1,1.4632316E-1,5.7785062E-5,1.808E1,6.2E-1,-1.9550753E-1,-1.4E-1,-4.9401904E-3,-5.926E1,4.135907E4,5.2358E2,8.0148E2,-1.3792447E-3,-1.7891043E-1,-1.9177476E-2,-1.5268669E-1,8.560965E-2,-1.5506652E-1,6.667546E-2,4.2608884E-1,-1.6890275E-1,2.2096659E-1,-2.2526762E-2,-2.476119E-1,1.3474393E-1,-1.794233E-1,-1.5742857E-2,4.350807E-1,1.780536E-4,5.4620605E-2,-2.408698E-2,1.201092E-3],"split_indices":[7,4,5,12,1,4,2,0,0,9,0,1,2,0,4,5,12,12,7,0,7,11,4,2,0,0,0,10,6,6,0,6,12,6,9,4,4,0,0,0,0,0,0,0,0,0,0,0,0,0,0,0,0,0,0,0,0],"split_type":[0,0,0,0,0,0,0,0,0,0,0,0,0,0,0,0,0,0,0,0,0,0,0,0,0,0,0,0,0,0,0,0,0,0,0,0,0,0,0,0,0,0,0,0,0,0,0,0,0,0,0,0,0,0,0,0,0],"sum_hessian":[8.819065E3,8.160883E1,8.737457E3,2.7204196E0,7.888841E1,1.3279634E2,8.60466E3,1.0046898E0,1.7157298E0,7.7714195E1,1.174215E0,1.05937805E2,2.6858543E1,4.619662E0,8.600041E3,7.173734E1,5.9768496E0,1.0073332E2,5.204486E0,1.2835025E1,1.4023518E1,3.1773851E1,8.568267E3,2.4652457E0,6.92721E1,4.968158E0,1.0086915E0,6.873153E1,3.2001793E1,4.0766387E0,1.127847E0,3.1098988E0,1.0913619E1,2.4475546E1,7.298304E0,9.955193E2,7.5727476E3,1.0044564E0,1.4607893E0,3.9172108E1,2.9559418E1,2.6359419E1,5.6423745E0,1.9749026E0,2.101736E0,1.2532574E0,1.8566414E0,2.1581194E0,8.7555E0,2.3998494E0,2.2075697E1,6.134291E0,1.164013E0,6.7930365E2,3.1621564E2,7.01208E2,6.8715396E3],"tree_param":{"num_deleted":"0","num_feature":"13","num_nodes":"57","size_leaf_vector":"1"}},{"base_weights":[-7.863168E-3,-8.8101304E-1,-1.4944007E-3,1.988359E-2,-9.211083E-1,-1.2679474E-1,2.431784E-3,1.1051142E-1,-8.501479E-2,-9.657793E-1,-4.5199955E-1,-7.4914944E-1,-9.0689935E-2,3.8342744E-1,1.6010354E-3,-3.8305172E-1,-2.9495153E-1,-6.8359375E-1,1.4407876E-1,-5.5477064E-4,-2.7558124E-1,-2.9534465E-2,-3.3306107E-1,6.851381E-1,1.3054882E-1,2.054904E-1,3.0394556E-4,-1.6589083E-1,-7.233329E-4,-2.4199224E-1,-1.8837847E-2,-1.8205956E-1,1.9431154E-1,-1.416999E-1,9.902492E-2,-3.760148E-1,2.4803203E-1,4.222334E-1,-3.918743E-2,-1.527722E-1,3.674514E-1,-3.7484113E-2,8.348876E-3,1.1189561E-2,-1.18966036E-1,-3.5910558E-2,8.703875E-2,1.8422518E-2,-1.5717536E-1,2.90374E-1,-8.674867E-2,4.289748E-2,-2.5427213E-1,4.17237E-1,6.5383136E-2,-8.8234186E-2,-7.7021546E-3,1.2342117E-1,1.8738456E-3],"categories":[],"categories_nodes":[],"categories_segments":[],"categories_sizes":[],"default_left":[0,0,0,0,0,0,0,0,0,0,0,0,0,0,0,0,0,0,0,0,0,0,0,0,0,0,0,0,0,0,0,0,0,0,0,0,0,0,0,0,0,0,0,0,0,0,0,0,0,0,0,0,0,0,0,0,0,0,0],"id":15,"left_children":[1,3,5,7,9,11,13,-1,-1,15,17,19,21,23,25,27,-1,29,-1,31,-1,33,35,-1,37,39,41,-1,-1,-1,-1,-1,-1,43,45,47,-1,-1,49,51,53,55,57,-1,-1,-1,-1,-1,-1,-1,-1,-1,-1,-1,-1,-1,-1,-1,-1],"loss_changes":[4.889626E1,2.318222E0,4.295275E0,4.9456346E-1,8.4132385E-1,5.8926554E0,2.6790318E0,0E0,0E0,1.7876816E-1,1.8788662E0,1.8271313E0,3.723336E0,8.551827E0,2.2343225E0,2.0734307E-1,0E0,4.2029548E-1,0E0,1.8316094E0,0E0,2.9299269E0,2.8341494E0,0E0,3.8076558E0,3.155087E0,2.5528262E0,0E0,0E0,0E0,0E0,0E0,0E0,4.959982E0,3.9977317E0,3.236393E0,0E0,0E0,4.3721256E0,3.6832192E0,5.3690743E0,4.459857E0,5.865095E0,0E0,0E0,0E0,0E0,0E0,0E0,0E0,0E0,0E0,0E0,0E0,0E0,0E0,0E0,0E0,0E0],"parents":[2147483647,0,0,1,1,2,2,3,3,4,4,5,5,6,6,9,9,10,10,11,11,12,12,13,13,14,14,15,15,17,17,19,19,21,21,22,22,24,24,25,25,26,26,33,33,34,34,35,35,38,38,39,39,40,40,41,41,42,42],"right_children":[2,4,6,8,10,12,14,-1,-1,16,18,20,22,24,26,28,-1,30,-1,32,-1,34,36,-1,38,40,42,-1,-1,-1,-1,-1,-1,44,46,48,-1,-1,50,52,54,56,58,-1,-1,-1,-1,-1,-1,-1,-1,-1,-1,-1,-1,-1,-1,-1,-1],"split_conditions":[9.731074E0,3.779E1,3.9180206E1,-1.4E-1,1.1928655E3,1.7164363E3,4.0100906E1,1.1051142E-1,-8.501479E-2,4.422962E4,4.6945666E-3,4.422962E4,3.5307827E1,-3.395E1,-7.6782174E-2,2.8E-1,-2.9495153E-1,6.47823E3,1.4407876E-1,5.9318E2,-2.7558124E-1,1.31755E3,6.420958E7,6.851381E-1,-1.0142412E-2,-2.9552E2,9.82476E3,-1.6589083E-1,-7.233329E-4,-2.4199224E-1,-1.8837847E-2,-1.8205956E-1,1.9431154E-1,8.0148E2,2.701869E1,7.4555E2,2.4803203E-1,4.222334E-1,5.9308655E6,-4.564616E-2,-2.3143E2,-1.3228E2,9.322355E3,1.1189561E-2,-1.18966036E-1,-3.5910558E-2,8.703875E-2,1.8422518E-2,-1.5717536E-1,2.90374E-1,-8.674867E-2,4.289748E-2,-2.5427213E-1,4.17237E-1,6.5383136E-2,-8.8234186E-2,-7.7021546E-3,1.2342117E-1,1.8738456E-3],"split_indices":[7,4,7,6,9,8,7,0,0,5,12,5,7,6,12,6,0,1,0,2,0,4,5,0,12,6,1,0,0,0,0,0,0,4,7,4,0,0,5,11,6,6,9,0,0,0,0,0,0,0,0,0,0,0,0,0,0,0,0],"split_type":[0,0,0,0,0,0,0,0,0,0,0,0,0,0,0,0,0,0,0,0,0,0,0,0,0,0,0,0,0,0,0,0,0,0,0,0,0,0,0,0,0,0,0,0,0,0,0,0,0,0,0,0,0,0,0,0,0,0,0],"sum_hessian":[8.792124E3,6.2671036E1,8.729453E3,2.691867E0,5.9979168E1,2.642691E2,8.465185E3,1.1526544E0,1.5392127E0,5.3797535E1,6.181634E0,1.3407567E1,2.5086154E2,1.7415884E1,8.447769E3,2.2264106E0,5.1571125E1,5.165218E0,1.0164162E0,2.6599712E0,1.0747596E1,2.0121301E2,4.9648533E1,1.1021458E0,1.6313738E1,5.240756E1,8.39536E3,1.2262708E0,1.0001398E0,4.060954E0,1.1042639E0,1.407452E0,1.2525192E0,1.07403465E2,9.380954E1,4.8527164E1,1.1213698E0,1.0585444E0,1.5255194E1,1.6333687E1,3.607387E1,1.4729706E3,6.92239E3,6.3592445E1,4.381102E1,4.391762E1,4.989192E1,1.2409849E1,3.6117317E1,2.4624417E0,1.2792752E1,1.2013826E1,4.3198595E0,3.540137E0,3.2533733E1,6.3753044E1,1.4092175E3,3.4916203E1,6.887474E3],"tree_param":{"num_deleted":"0","num_feature":"13","num_nodes":"59","size_leaf_vector":"1"}},{"base_weights":[-5.893479E-3,-8.460465E-1,-1.1098956E-3,1.7719952E-2,-8.962771E-1,-1.7204335E-1,1.3708012E-3,-1.5879187E-1,1.2996912E-1,-9.5352435E-1,-3.8904375E-1,-7.429591E-2,-6.4255786E-1,-2.2794534E-1,1.7285049E-3,-3.4466356E-1,-2.9288074E-1,-6.4058256E-1,1.4720713E-1,-2.4127176E-2,-4.9647212E-1,-2.6971316E-1,-4.1006476E-1,5.0724146E-4,2.1450545E-1,-1.5311801E-1,-1.3002525E-3,-1.2797053E-3,-2.3498821E-1,-5.52679E-2,3.0354065E-1,1.6430484E-1,-6.98097E-1,-5.850933E-1,1.5903403E-1,1.8883373E-3,-2.5603557E-1,3.2113153E-1,-3.1328422E-1,1.0061866E-1,-4.045652E-2,-2.5327677E-1,1.2369894E-2,1.3338537E-2,-2.1322232E-1,3.563986E-5,8.5275725E-2,-2.0510596E-1,7.761772E-3,3.941079E-2,3.1185555E-1,3.4378182E-2,-2.6405346E-1],"categories":[],"categories_nodes":[],"categories_segments":[],"categories_sizes":[],"default_left":[0,0,0,0,0,0,0,0,0,0,0,0,0,0,0,0,0,0,0,0,0,0,0,0,0,0,0,0,0,0,0,0,0,0,0,0,0,0,0,0,0,0,0,0,0,0,0,0,0,0,0,0,0],"id":16,"left_children":[1,3,5,7,9,11,13,-1,-1,15,17,19,21,-1,23,25,-1,27,-1,29,31,-1,33,35,37,-1,-1,-1,-1,39,-1,-1,41,43,-1,45,47,49,51,-1,-1,-1,-1,-1,-1,-1,-1,-1,-1,-1,-1,-1,-1],"loss_changes":[3.523736E1,2.1695824E0,3.6975646E0,1.0722611E0,9.917793E-1,5.689228E0,2.341743E0,0E0,0E0,2.3796463E-1,1.7413349E0,2.1995068E0,9.0302086E-1,0E0,2.232745E0,1.6922283E-1,0E0,4.9144006E-1,0E0,3.1004102E0,2.7063305E0,0E0,2.453492E0,3.0279226E0,2.8600955E0,0E0,0E0,0E0,0E0,2.9233582E0,0E0,